{"learner":{"attributes":{"best_iteration":"99","best_ntree_limit":"100","scikit_learn":"{\"use_label_encoder\": false, \"n_estimators\": 100, \"objective\": \"binary:logistic\", \"max_depth\": null, \"max_leaves\": null, \"max_bin\": null, \"grow_policy\": null, \"learning_rate\": null, \"verbosity\": null, \"booster\": null, \"tree_method\": null, \"gamma\": null, \"min_child_weight\": null, \"max_delta_step\": null, \"subsample\": null, \"sampling_method\": null, \"colsample_bytree\": null, \"colsample_bylevel\": null, \"colsample_bynode\": null, \"reg_alpha\": null, \"reg_lambda\": null, \"scale_pos_weight\": null, \"base_score\": null, \"missing\": NaN, \"num_parallel_tree\": null, \"random_state\": null, \"n_jobs\": null, \"monotone_constraints\": null, \"interaction_constraints\": null, \"importance_type\": null, \"gpu_id\": null, \"validate_parameters\": null, \"predictor\": null, \"enable_categorical\": false, \"max_cat_to_onehot\": null, \"eval_metric\": null, \"early_stopping_rounds\": null, \"callbacks\": null, \"classes_\": [0.0, 1.0], \"n_classes_\": 2, \"_estimator_type\": \"classifier\"}"},"feature_names":[],"feature_types":[],"gradient_booster":{"model":{"gbtree_model_param":{"num_parallel_tree":"1","num_trees":"100","size_leaf_vector":"0"},"tree_info":[0,0,0,0,0,0,0,0,0,0,0,0,0,0,0,0,0,0,0,0,0,0,0,0,0,0,0,0,0,0,0,0,0,0,0,0,0,0,0,0,0,0,0,0,0,0,0,0,0,0,0,0,0,0,0,0,0,0,0,0,0,0,0,0,0,0,0,0,0,0,0,0,0,0,0,0,0,0,0,0,0,0,0,0,0,0,0,0,0,0,0,0,0,0,0,0,0,0,0,0],"trees":[{"base_weights":[-1.6770629E0,-1.3222148E0,-1.7378166E0,-9.5390373E-1,-1.4689143E0,-1.5237762E0,-1.8050652E0,-4.473684E-1,-1.037542E0,-1.2145015E0,-1.5388399E0,-1.4054332E0,-1.6932139E0,-1.7446651E0,-1.8691653E0,-1.4622056E-1,-6.8364346E-1,-7.3878807E-1,-1.1449777E0,-1.081878E0,-1.4422624E0,-1.4526589E0,-1.6438404E0,-1.1320337E0,-1.4934754E0,-1.4861412E0,-1.7325699E0,-1.6779591E0,-1.8149139E0,-1.8352361E0,-1.9021068E0,7.6363635E-1,-2.1164021E-1,-7.5773746E-1,1.3636364E-1,-9.608022E-1,-6.0393876E-1,-1.1966791E0,-8.1306714E-1,-1.1827377E0,-8.721493E-1,-1.4744283E0,-8.689655E-1,-1.5595732E0,-1.3507149E0,-1.6880082E0,-1.5415704E0,-9.952061E-1,-1.3177888E0,-1.6650311E0,-1.4452221E0,-1.6509265E0,-1.3725806E0,-1.7845793E0,-1.6570271E0,-1.6475362E0,-1.7817267E0,-1.8327794E0,-1.7101686E0,-1.8743151E0,-1.8053442E0,-0E0,-1.902262E0,-3.529412E-1,1.1428572E0,-3.5339805E-1,8.979592E-2,-8.094701E-1,1.4814815E-1,-4E-1,7.619048E-1,-4.1340783E-1,-1.0629067E0,-7.610921E-1,-3.212121E-1,-1.24653E0,-8.6993605E-1,4.6153846E-1,-8.4074074E-1,-1.3534694E0,-1.060172E0,-9.6896553E-1,-4.742268E-1,-1.5122402E0,-1.1147541E0,-1.1864407E0,4.516129E-1,-1.5655029E0,-6.4E-1,-1.2155548E0,-1.4464501E0,2.2222222E-1,-1.6893352E0,-1.557783E0,-7.368421E-1,-1.0522738E0,-4.639376E-1,-8.28125E-1,-1.3514726E0,-1.7005347E0,-1.4911132E0,-1.3996859E0,-1.6446425E0,-1.6650486E0,-6.2068963E-1,-1.2348754E0,-1.482353E0,-1.7884115E0,-1.1914893E0,-1.6224445E0,-1.77332E0,-1.728398E0,-1.5899792E0,-1.7826415E0,2.2222222E-1,-1.8077338E0,-1.8892468E0,-1.62447E0,-1.7782159E0,-1.8779588E0,-1.6078432E0,-1.7763258E0,-1.8810927E0,-1.9107685E0,-1.8522195E0],"categories":[],"categories_nodes":[],"categories_segments":[],"categories_sizes":[],"default_left":[1,1,1,1,1,1,1,1,1,1,1,1,1,1,1,1,1,1,1,1,1,1,1,1,1,1,1,1,1,1,1,1,1,1,1,1,1,1,1,1,1,1,1,1,1,1,1,1,1,1,1,1,1,1,1,1,1,1,1,1,1,0,1,0,0,0,0,0,0,0,0,0,0,0,0,0,0,0,0,0,0,0,0,0,0,0,0,0,0,0,0,0,0,0,0,0,0,0,0,0,0,0,0,0,0,0,0,0,0,0,0,0,0,0,0,0,0,0,0,0,0,0,0,0,0],"id":0,"left_children":[1,3,5,7,9,11,13,15,17,19,21,23,25,27,29,31,33,35,37,39,41,43,45,47,49,51,53,55,57,59,61,63,65,67,69,71,73,75,77,79,81,83,85,87,89,91,93,95,97,99,101,103,105,107,109,111,113,115,117,119,121,-1,123,-1,-1,-1,-1,-1,-1,-1,-1,-1,-1,-1,-1,-1,-1,-1,-1,-1,-1,-1,-1,-1,-1,-1,-1,-1,-1,-1,-1,-1,-1,-1,-1,-1,-1,-1,-1,-1,-1,-1,-1,-1,-1,-1,-1,-1,-1,-1,-1,-1,-1,-1,-1,-1,-1,-1,-1,-1,-1,-1,-1,-1,-1],"loss_changes":[1.6550781E3,6.0604297E2,9.420156E2,1.3532861E2,1.4113086E2,3.1240234E2,1.9009375E2,3.2346138E1,8.742847E1,5.093091E1,5.4634766E1,2.209336E2,4.9996094E1,1.1750781E2,2.3578125E1,1.2170284E1,1.5611694E1,2.1282288E1,3.3707764E1,2.2284546E1,1.0456299E1,3.5708496E1,1.0194824E1,5.6053467E1,5.548047E1,1.7144043E1,1.8316406E1,3.8765625E1,2.0292969E1,1.0582031E1,3.6171875E0,6.2255163E0,8.10788E0,1.1097778E1,7.6861467E0,1.4888809E1,2.0060715E1,2.7363525E1,1.0105713E1,1.4081543E1,1.3477051E1,6.491089E0,1.5733658E1,8.196777E0,2.131958E1,5.364746E0,1.0150391E1,3.9039185E1,1.4619873E1,6.9023438E0,4.732715E1,5.0516357E0,7.541504E0,5.1279297E0,6.0581055E0,4.485547E1,5.864258E0,1.16875E1,7.835449E0,1.9882812E0,1.1609375E1,0E0,1.6796875E0,0E0,0E0,0E0,0E0,0E0,0E0,0E0,0E0,0E0,0E0,0E0,0E0,0E0,0E0,0E0,0E0,0E0,0E0,0E0,0E0,0E0,0E0,0E0,0E0,0E0,0E0,0E0,0E0,0E0,0E0,0E0,0E0,0E0,0E0,0E0,0E0,0E0,0E0,0E0,0E0,0E0,0E0,0E0,0E0,0E0,0E0,0E0,0E0,0E0,0E0,0E0,0E0,0E0,0E0,0E0,0E0,0E0,0E0,0E0,0E0,0E0,0E0],"parents":[2147483647,0,0,1,1,2,2,3,3,4,4,5,5,6,6,7,7,8,8,9,9,10,10,11,11,12,12,13,13,14,14,15,15,16,16,17,17,18,18,19,19,20,20,21,21,22,22,23,23,24,24,25,25,26,26,27,27,28,28,29,29,30,30,31,31,32,32,33,33,34,34,35,35,36,36,37,37,38,38,39,39,40,40,41,41,42,42,43,43,44,44,45,45,46,46,47,47,48,48,49,49,50,50,51,51,52,52,53,53,54,54,55,55,56,56,57,57,58,58,59,59,60,60,62,62],"right_children":[2,4,6,8,10,12,14,16,18,20,22,24,26,28,30,32,34,36,38,40,42,44,46,48,50,52,54,56,58,60,62,64,66,68,70,72,74,76,78,80,82,84,86,88,90,92,94,96,98,100,102,104,106,108,110,112,114,116,118,120,122,-1,124,-1,-1,-1,-1,-1,-1,-1,-1,-1,-1,-1,-1,-1,-1,-1,-1,-1,-1,-1,-1,-1,-1,-1,-1,-1,-1,-1,-1,-1,-1,-1,-1,-1,-1,-1,-1,-1,-1,-1,-1,-1,-1,-1,-1,-1,-1,-1,-1,-1,-1,-1,-1,-1,-1,-1,-1,-1,-1,-1,-1,-1,-1],"split_conditions":[3.146944E-1,3.7971812E-1,3.9051694E-1,7.06076E-2,1.3980949E-1,5.415498E-1,5.361731E-1,1.8035486E-1,1.4599244E-1,6.3344514E-1,6.1434466E-1,1.5281317E-1,1.3074076E-1,6.174098E-1,6.249482E-1,1.252082E-3,2.3809524E-2,-7.8694446E2,5.5777776E-1,2.8174603E-1,-2.75E1,-3.2770288E2,-5.870625E2,4.2481202E-1,-1.9978E4,-1.8027E4,-1.54055E4,5E-1,2.9814816E-1,-1.74545E4,-4.05E3,-2.8004547E2,-7.75E1,-8.25E1,8.712122E-2,1.4874646E-1,2E-2,4.4722223E-1,-6.9885E3,-8.327262E2,-6.35E1,3.7715518E-1,-2.4316666E2,8.208556E-1,2.2445908E-1,-2.771E3,-4.55E1,4.852941E-1,1.0723333E-2,8.166666E-2,5E-1,6.125E-1,6.854451E-2,-3.85E1,5E-1,-1.67375E4,6.173246E-1,5E-1,4.1421568E-1,-6.416667E0,5E-1,-0E0,1.2916666E-1,-1.0588236E-1,3.4285718E-1,-1.0601942E-1,2.6938776E-2,-2.4284105E-1,4.4444446E-2,-1.20000005E-1,2.2857144E-1,-1.2402236E-1,-3.1887203E-1,-2.2832765E-1,-9.636364E-2,-3.7395903E-1,-2.609808E-1,1.3846155E-1,-2.5222224E-1,-4.0604082E-1,-3.180516E-1,-2.9068968E-1,-1.4226805E-1,-4.5367208E-1,-3.3442622E-1,-3.5593224E-1,1.3548388E-1,-4.696509E-1,-1.92E-1,-3.6466646E-1,-4.3393505E-1,6.666667E-2,-5.068006E-1,-4.6733493E-1,-2.2105263E-1,-3.1568214E-1,-1.3918129E-1,-2.4843751E-1,-4.054418E-1,-5.1016045E-1,-4.4733396E-1,-4.1990578E-1,-4.9339277E-1,-4.995146E-1,-1.8620689E-1,-3.7046266E-1,-4.447059E-1,-5.3652346E-1,-3.5744682E-1,-4.8673338E-1,-5.31996E-1,-5.185194E-1,-4.7699377E-1,-5.347925E-1,6.666667E-2,-5.4232013E-1,-5.667741E-1,-4.8734102E-1,-5.334648E-1,-5.6338763E-1,-4.8235297E-1,-5.328978E-1,-5.6432784E-1,-5.7323056E-1,-5.5566585E-1],"split_indices":[25,12,12,12,25,25,25,25,25,12,12,12,12,12,12,12,13,22,16,15,21,23,22,18,6,6,6,8,15,6,11,23,21,22,14,12,17,15,24,22,21,17,29,15,25,29,27,15,12,17,8,15,12,7,8,6,12,8,18,23,8,0,17,0,0,0,0,0,0,0,0,0,0,0,0,0,0,0,0,0,0,0,0,0,0,0,0,0,0,0,0,0,0,0,0,0,0,0,0,0,0,0,0,0,0,0,0,0,0,0,0,0,0,0,0,0,0,0,0,0,0,0,0,0,0],"split_type":[0,0,0,0,0,0,0,0,0,0,0,0,0,0,0,0,0,0,0,0,0,0,0,0,0,0,0,0,0,0,0,0,0,0,0,0,0,0,0,0,0,0,0,0,0,0,0,0,0,0,0,0,0,0,0,0,0,0,0,0,0,0,0,0,0,0,0,0,0,0,0,0,0,0,0,0,0,0,0,0,0,0,0,0,0,0,0,0,0,0,0,0,0,0,0,0,0,0,0,0,0,0,0,0,0,0,0,0,0,0,0,0,0,0,0,0,0,0,0,0,0,0,0,0,0],"sum_hessian":[7.687775E4,1.12415E4,6.563625E4,3.20425E3,8.03725E3,1.56975E4,4.993875E4,4.55E2,2.74925E3,1.73675E3,6.3005E3,9.24775E3,6.44975E3,2.5726E4,2.421275E4,2.0075E2,2.5425E2,7.2925E2,2.02E3,1.10125E3,6.355E2,3.4685E3,2.832E3,2.256E3,6.99175E3,1.03625E3,5.4135E3,1.32085E4,1.25175E4,1.19555E4,1.225725E4,1.275E1,1.88E2,2.3325E2,2.1E1,2.7325E2,4.56E2,1.7455E3,2.745E2,7.405E2,3.6075E2,6.0025E2,3.525E1,1.686E3,1.7825E3,1.967E3,8.65E2,1.30275E3,9.5325E2,1.5275E3,5.46425E3,4.1725E2,6.19E2,3.19275E3,2.22075E3,1.0227E4,2.9815E3,1.06795E4,1.838E3,5.15475E3,6.80075E3,1E0,1.225625E4,3.25E0,9.5E0,1.2775E2,6.025E1,2.2075E2,1.25E1,1.15E1,9.5E0,4.375E1,2.295E2,2.92E2,1.64E2,1.512E3,2.335E2,5.5E0,2.69E2,3.0525E2,4.3525E2,2.89E2,7.175E1,5.4025E2,6E1,2.85E1,6.75E0,1.6745E3,1.15E1,7.4475E2,1.03775E3,1.25E0,1.96575E3,8.47E2,1.8E1,1.1755E3,1.2725E2,6.3E1,8.9025E2,1.26125E3,2.6625E2,4.455E3,1.00925E3,4.11E2,6.25E0,2.8E2,3.39E2,3.17025E3,2.25E1,1.72325E3,4.975E2,4.2405E3,5.9865E3,2.98025E3,1.25E0,7.421E3,3.2585E3,8.245E2,1.0135E3,5.07925E3,7.55E1,4.93475E3,1.866E3,1.044375E4,1.8125E3],"tree_param":{"num_deleted":"0","num_feature":"30","num_nodes":"125","size_leaf_vector":"0"}},{"base_weights":[-1.263486E0,-9.1387177E-1,-1.3065864E0,-5.08478E-1,-1.0079376E0,-1.1314332E0,-1.3706551E0,-2.2511472E-1,-5.845863E-1,-9.267733E-1,-1.1781747E0,-1.0439411E0,-1.3001348E0,-1.3192502E0,-1.4335705E0,-3.2921374E-1,2.3390153E-1,-6.423041E-1,-2.0460315E-1,-7.225377E-1,-9.932659E-1,-1.0340014E0,-1.2279731E0,-8.5049146E-1,-1.1210774E0,-1.1399974E0,-1.3302267E0,-1.2769821E0,-1.3950921E0,-1.4079593E0,-1.4660326E0,-3.7575272E-1,8.2133293E-1,-6.246376E-1,4.5198035E-1,-2.5504318E-1,-7.050589E-1,-2.5176477E-1,1.3824737E0,-7.932855E-1,-3.760125E-1,-9.364186E-1,-1.1635562E0,-1.0960777E0,-7.845736E-1,-1.2426848E0,-9.2515016E-1,-1.0751395E0,-7.604418E-1,-1.1518456E0,-8.871254E-1,-1.2356604E0,-9.998879E-1,-1.3814671E0,-1.2791203E0,-1.2962444E0,-1.1146886E0,-1.3685848E0,-1.4513063E0,-1.4215484E0,-1.3480473E0,-0E0,-1.4661903E0,-1.3735807E0,-3.1575978E-1,-3.357387E-1,1.2764086E0,1.1899834E0,-9.3208987E-1,6.981716E-1,-2.3547018E-1,-9.4027615E-1,-1.4659512E-1,-9.393174E-1,-6.3250333E-1,-7.202362E-1,-7.041302E-2,-7.058026E-1,-1.0420313E0,-6.692675E-1,-2.4790502E-1,-1.0095879E0,-7.8336173E-1,-1.1726946E0,-5.864434E-2,-1.1389343E0,-7.259297E-1,-8.70736E-1,2.0081507E-1,-1.192971E0,-1.3361785E0,-9.662691E-1,7.109343E-1,-4.518151E-1,-1.1025778E0,-6.3336456E-1,-8.7181705E-1,-1.2549802E0,-1.1010423E0,-9.6820056E-1,-6.520812E-1,-1.240134E0,4.4492832E-1,3.5182068E-1,-1.0178537E0,7.456551E-2,-1.3821882E0,-1.3881325E0,-1.2277852E0,-1.3664316E0,-1.2678821E0,-9.875832E-1,-1.2351564E0,-1.3015825E0,-1.3979142E0,-1.4531963E0,-7.9144394E-1,-1.4458697E0,-1.3857E0,-1.3209219E0,-1.4441254E0,-1.4761409E0,-1.434171E0],"categories":[],"categories_nodes":[],"categories_segments":[],"categories_sizes":[],"default_left":[1,1,1,1,1,1,1,1,1,1,1,1,1,1,1,1,1,1,1,1,1,1,1,1,1,1,1,1,1,1,1,1,1,1,1,1,1,1,0,1,1,1,1,1,1,1,1,1,1,1,1,1,1,1,1,1,1,1,1,1,1,0,1,0,0,0,0,0,0,0,0,0,0,0,0,0,0,0,0,0,0,0,0,0,0,0,0,0,0,0,0,0,0,0,0,0,0,0,0,0,0,0,0,0,0,0,0,0,0,0,0,0,0,0,0,0,0,0,0,0,0,0,0],"id":1,"left_children":[1,3,5,7,9,11,13,15,17,19,21,23,25,27,29,31,33,35,37,39,41,43,45,47,49,51,53,55,57,59,61,63,65,67,69,71,73,75,-1,77,79,81,83,85,87,89,91,93,95,97,99,101,103,105,107,109,111,113,115,117,119,-1,121,-1,-1,-1,-1,-1,-1,-1,-1,-1,-1,-1,-1,-1,-1,-1,-1,-1,-1,-1,-1,-1,-1,-1,-1,-1,-1,-1,-1,-1,-1,-1,-1,-1,-1,-1,-1,-1,-1,-1,-1,-1,-1,-1,-1,-1,-1,-1,-1,-1,-1,-1,-1,-1,-1,-1,-1,-1,-1,-1,-1],"loss_changes":[1.0854688E3,3.014287E2,7.18875E2,3.2072266E1,8.769287E1,2.5250586E2,1.5011719E2,1.5261572E1,2.5670654E1,5.843579E1,1.3598145E1,1.6812305E2,2.6768555E1,8.117578E1,1.5496094E1,1.4200956E1,1.1390718E1,2.462967E1,1.2069689E1,2.6019531E1,3.0695068E1,7.4698486E0,5.6835938E0,6.460864E1,5.72666E1,1.1303223E1,1.115625E1,5.0541016E1,1.1798828E1,7.71875E0,2.1503906E0,1.453492E1,5.9049826E0,8.048305E0,8.269968E0,1.0557636E1,1.4327942E1,1.2941934E1,0E0,1.8644592E1,6.7432766E0,2.6834473E1,8.18689E0,5.966675E0,9.575905E0,5.1914062E0,5.731079E0,1.5288574E1,3.2172485E1,3.6097656E1,1.7386658E1,4.699341E0,9.7030945E0,2.677246E0,1.2197998E1,2.7845703E1,2.5904541E1,1.0569336E1,2.525879E0,6.388672E0,3.8439941E0,0E0,8.417969E-1,0E0,0E0,0E0,0E0,0E0,0E0,0E0,0E0,0E0,0E0,0E0,0E0,0E0,0E0,0E0,0E0,0E0,0E0,0E0,0E0,0E0,0E0,0E0,0E0,0E0,0E0,0E0,0E0,0E0,0E0,0E0,0E0,0E0,0E0,0E0,0E0,0E0,0E0,0E0,0E0,0E0,0E0,0E0,0E0,0E0,0E0,0E0,0E0,0E0,0E0,0E0,0E0,0E0,0E0,0E0,0E0,0E0,0E0,0E0,0E0],"parents":[2147483647,0,0,1,1,2,2,3,3,4,4,5,5,6,6,7,7,8,8,9,9,10,10,11,11,12,12,13,13,14,14,15,15,16,16,17,17,18,18,19,19,20,20,21,21,22,22,23,23,24,24,25,25,26,26,27,27,28,28,29,29,30,30,31,31,32,32,33,33,34,34,35,35,36,36,37,37,39,39,40,40,41,41,42,42,43,43,44,44,45,45,46,46,47,47,48,48,49,49,50,50,51,51,52,52,53,53,54,54,55,55,56,56,57,57,58,58,59,59,60,60,62,62],"right_children":[2,4,6,8,10,12,14,16,18,20,22,24,26,28,30,32,34,36,38,40,42,44,46,48,50,52,54,56,58,60,62,64,66,68,70,72,74,76,-1,78,80,82,84,86,88,90,92,94,96,98,100,102,104,106,108,110,112,114,116,118,120,-1,122,-1,-1,-1,-1,-1,-1,-1,-1,-1,-1,-1,-1,-1,-1,-1,-1,-1,-1,-1,-1,-1,-1,-1,-1,-1,-1,-1,-1,-1,-1,-1,-1,-1,-1,-1,-1,-1,-1,-1,-1,-1,-1,-1,-1,-1,-1,-1,-1,-1,-1,-1,-1,-1,-1,-1,-1,-1,-1,-1,-1],"split_conditions":[2.6575312E-1,2.6912045E-1,4.1442892E-1,6.2321395E-2,6.336888E-1,5.717995E-1,5.4512894E-1,4.599359E-1,-4.05E1,1.24127395E-1,1.3135865E-1,1.7376849E-1,1.38573E-1,6.558489E-1,6.460213E-1,-3.575E2,5E-1,8.3640605E-2,-1.505E2,2.8174603E-1,5E-1,-7.75E1,6.9848484E-1,-1.81695E4,3.726852E-1,-1.49435E4,5E-1,3.8348418E-1,5E-1,8.166666E-2,-4.05E3,1.5E0,-7.29E2,-2.7755E3,-4.74E2,-1.9822E4,-2.3275E3,-1.56E3,4.1474214E-1,5E-1,-8.83E2,-5.12875E2,-1.295E2,3.7715518E-1,-4.108333E2,5E-1,-1.95E1,1.0613051E-2,1.8333334E-1,-4.285357E2,-1.655E2,2.0833334E-1,-2.5575E3,-2.91E3,-2.8915E3,5E-1,4.852941E-1,4.356199E-1,6.882591E-1,-1.54155E4,5E-1,-0E0,1.0818714E-1,-4.1207424E-1,-9.472794E-2,-1.0072161E-1,3.829226E-1,3.5699502E-1,-2.7962697E-1,2.094515E-1,-7.0641056E-2,-2.8208286E-1,-4.397854E-2,-2.8179523E-1,-1.8975101E-1,-2.1607086E-1,-2.1123908E-2,-2.1174079E-1,-3.126094E-1,-2.0078026E-1,-7.437151E-2,-3.0287638E-1,-2.3500852E-1,-3.5180837E-1,-1.7593302E-2,-3.416803E-1,-2.177789E-1,-2.612208E-1,6.0244523E-2,-3.5789132E-1,-4.0085357E-1,-2.8988072E-1,2.1328029E-1,-1.3554454E-1,-3.3077335E-1,-1.9000937E-1,-2.6154512E-1,-3.7649408E-1,-3.303127E-1,-2.9046017E-1,-1.9562437E-1,-3.720402E-1,1.334785E-1,1.05546206E-1,-3.0535614E-1,2.2369653E-2,-4.146565E-1,-4.1643974E-1,-3.6833557E-1,-4.0992948E-1,-3.8036466E-1,-2.96275E-1,-3.7054694E-1,-3.9047477E-1,-4.1937426E-1,-4.359589E-1,-2.374332E-1,-4.337609E-1,-4.1571E-1,-3.962766E-1,-4.3323764E-1,-4.4284227E-1,-4.302513E-1],"split_indices":[25,12,12,12,12,25,25,15,21,25,25,12,12,12,12,7,0,25,7,17,8,21,16,6,15,6,10,15,8,17,11,3,11,20,24,6,20,24,0,8,22,22,28,17,28,8,21,12,18,23,20,13,21,21,24,0,18,25,14,6,8,0,15,0,0,0,0,0,0,0,0,0,0,0,0,0,0,0,0,0,0,0,0,0,0,0,0,0,0,0,0,0,0,0,0,0,0,0,0,0,0,0,0,0,0,0,0,0,0,0,0,0,0,0,0,0,0,0,0,0,0,0,0],"split_type":[0,0,0,0,0,0,0,0,0,0,0,0,0,0,0,0,0,0,0,0,0,0,0,0,0,0,0,0,0,0,0,0,0,0,0,0,0,0,0,0,0,0,0,0,0,0,0,0,0,0,0,0,0,0,0,0,0,0,0,0,0,0,0,0,0,0,0,0,0,0,0,0,0,0,0,0,0,0,0,0,0,0,0,0,0,0,0,0,0,0,0,0,0,0,0,0,0,0,0,0,0,0,0,0,0,0,0,0,0,0,0,0,0,0,0,0,0,0,0,0,0,0,0],"sum_hessian":[7.211412E4,7.9169556E3,6.419716E4,1.4922483E3,6.4247075E3,1.719834E4,4.6998816E4,3.1678082E2,1.1754674E3,4.354871E3,2.0698364E3,1.1329705E4,5.8686353E3,2.5877613E4,2.1121205E4,2.5845038E2,5.8330463E1,1.019864E3,1.5560342E2,1.0724995E3,3.2823716E3,5.36977E2,1.5328594E3,3.2332031E3,8.096502E3,9.344935E2,4.9341416E3,1.6628215E4,9.249398E3,1.1831243E4,9.289962E3,2.4904985E2,9.400513E0,1.1437742E1,4.689272E1,1.4292627E2,8.7693774E2,1.5193004E2,3.6733923E0,8.895887E2,1.8291081E2,2.4657415E3,8.1663E2,4.2725064E2,1.09726326E2,1.4588806E3,7.397877E1,9.2203973E2,2.3111633E3,7.151988E3,9.445146E2,5.506825E2,3.8381107E2,2.4508396E3,2.483302E3,1.4857789E4,1.7704253E3,6.302738E3,2.9466604E3,9.625339E3,2.2059045E3,1E0,9.288962E3,1.28827505E1,2.361671E2,2.7275927E0,6.6729198E0,1.2412527E0,1.019649E1,3.4516132E1,1.2376588E1,1.8481287E1,1.24444984E2,2.0455363E2,6.723841E2,4.1571144E1,1.1035889E2,6.6096674E2,2.2862193E2,5.4326344E1,1.2858447E2,1.6644496E3,8.012919E2,8.0987054E2,6.759461E0,3.8105438E2,4.619626E1,1.0101034E2,8.715992E0,9.614204E2,4.974602E2,7.2564445E1,1.4143256E0,3.9612705E1,8.82427E2,1.0826104E3,1.2285531E3,2.3525073E3,4.79948E3,6.9995557E2,2.4455904E2,5.4948193E2,1.2005639E0,4.7906523E0,3.7902042E2,1.1625187E0,2.449677E3,7.8669183E2,1.6966102E3,4.262441E3,1.0595348E4,8.659546E2,9.044707E2,1.9327645E3,4.369973E3,2.937046E3,9.614558E0,5.7112314E3,3.9141074E3,1.7317389E3,4.741658E2,7.0522764E3,2.2366855E3],"tree_param":{"num_deleted":"0","num_feature":"30","num_nodes":"123","size_leaf_vector":"0"}},{"base_weights":[-1.0305909E0,-7.6992947E-1,-1.0891714E0,-5.2814305E-1,-8.8733155E-1,-8.7741995E-1,-1.1409372E0,-3.2939965E-1,-6.095247E-1,-7.676486E-1,-9.73616E-1,-9.530432E-1,-6.8674725E-1,-1.0836529E0,-1.2044984E0,-8.790007E-2,-4.3696326E-1,-6.5129787E-1,-2.9399264E-1,-6.994179E-1,-9.2756855E-1,-9.2319894E-1,-1.0849893E0,-7.843076E-1,-1.0014663E0,-4.1800228E-1,-7.644924E-1,-9.8732847E-1,-1.1386769E0,-1.1577456E0,-1.23339E0,7.692337E-1,-1.18429154E-1,-4.9779746E-1,-1.1443601E-1,-7.225556E-1,-4.8019126E-1,-3.1635186E-1,1.1822968E0,-4.6362212E-1,-7.425712E-1,-1.0080374E0,-7.826472E-1,-1.0036547E0,-8.507026E-1,-1.1555433E0,-1.0098931E0,-9.484684E-1,-6.970407E-1,-1.121737E0,-9.5332444E-1,-5.146523E-1,-6.345639E-2,-7.030843E-1,-1.0151855E0,-1.0743546E0,-9.3795884E-1,-1.1106365E0,-1.2113775E0,-1.2004092E0,-1.1187242E0,-1.2141725E0,-1.2632726E0,-2.87336E-1,1.1125176E0,-1.3765666E0,-9.261234E-2,-6.752365E-1,-3.751577E-1,-3.0009353E-1,3.0558914E-1,-9.324629E-1,-6.548924E-1,-4.0056685E-1,-7.967294E-1,-7.5851774E-1,-2.5838563E-1,1.5151305E0,3.73952E-2,-8.157185E-1,-3.4126085E-1,-8.3081406E-1,-6.247545E-1,-9.2425287E-1,-1.1409172E0,-9.812646E-1,-6.413116E-1,-1.0443103E0,-7.7664703E-1,-8.867357E-1,-5.9019464E-1,-7.516966E-1,-1.1694114E0,-1.0190537E0,5.7580814E-2,-9.7621584E-1,-3.5481146E-1,-2.5043252E-1,-7.289344E-1,-1.1288955E0,-5.7075167E-1,-1.064747E0,-8.9630646E-1,2.4673429E-1,-5.670833E-1,-2.5325066E-1,4.4179595E-1,-7.6227385E-1,-4.6788052E-1,-1.0187298E0,2.3296039E-1,-1.1928643E0,-1.0408679E0,-1.0597199E0,-8.9705E-1,-1.1352279E0,-1.0087271E0,-1.1771959E0,-1.2421882E0,-1.2058035E0,-9.378779E-1,-1.1906472E0,-1.0679262E0,-1.1873205E0,-1.2420688E0,-1.2726887E0,-1.195819E0],"categories":[],"categories_nodes":[],"categories_segments":[],"categories_sizes":[],"default_left":[1,1,1,1,1,1,1,1,1,1,1,1,1,1,1,1,1,1,1,1,1,1,1,1,1,1,1,1,1,1,1,1,1,1,1,1,1,1,1,1,1,1,1,1,1,1,1,1,1,1,1,1,1,1,1,1,1,1,1,1,1,1,1,0,0,0,0,0,0,0,0,0,0,0,0,0,0,0,0,0,0,0,0,0,0,0,0,0,0,0,0,0,0,0,0,0,0,0,0,0,0,0,0,0,0,0,0,0,0,0,0,0,0,0,0,0,0,0,0,0,0,0,0,0,0,0,0],"id":2,"left_children":[1,3,5,7,9,11,13,15,17,19,21,23,25,27,29,31,33,35,37,39,41,43,45,47,49,51,53,55,57,59,61,63,65,67,69,71,73,75,77,79,81,83,85,87,89,91,93,95,97,99,101,103,105,107,109,111,113,115,117,119,121,123,125,-1,-1,-1,-1,-1,-1,-1,-1,-1,-1,-1,-1,-1,-1,-1,-1,-1,-1,-1,-1,-1,-1,-1,-1,-1,-1,-1,-1,-1,-1,-1,-1,-1,-1,-1,-1,-1,-1,-1,-1,-1,-1,-1,-1,-1,-1,-1,-1,-1,-1,-1,-1,-1,-1,-1,-1,-1,-1,-1,-1,-1,-1,-1,-1],"loss_changes":[9.682031E2,3.3019043E2,5.6696094E2,6.1420044E1,8.0211914E1,1.4617432E2,1.5028125E2,2.8769913E1,3.5420776E1,3.5238525E1,2.455664E1,5.876709E1,6.0174072E1,1.1498828E2,2.5214844E1,9.066374E0,1.4992462E1,2.8734253E1,1.0860853E1,2.3155151E1,1.0645691E1,1.7461426E1,6.317993E0,2.2687622E1,3.1700195E1,2.2304382E1,3.3838867E1,3.324463E1,2.7064453E1,1.1227539E1,5.4589844E0,4.6466656E0,1.0658292E1,1.3782684E1,9.684423E0,2.3277405E1,1.7430603E1,7.8455963E0,1.8299923E0,1.5228508E1,1.97594E1,5.9259644E0,9.3233185E0,1.2873535E1,1.5042847E1,3.161499E0,6.828186E0,8.9263E0,1.502887E1,5.7145996E0,2.4766113E1,2.0582352E1,1.3611235E1,2.4787231E1,2.1809998E0,1.0182617E1,2.4425293E1,2.4088867E1,2.6113281E0,3.9575195E0,1.319043E1,4.095703E0,1.4892578E0,0E0,0E0,0E0,0E0,0E0,0E0,0E0,0E0,0E0,0E0,0E0,0E0,0E0,0E0,0E0,0E0,0E0,0E0,0E0,0E0,0E0,0E0,0E0,0E0,0E0,0E0,0E0,0E0,0E0,0E0,0E0,0E0,0E0,0E0,0E0,0E0,0E0,0E0,0E0,0E0,0E0,0E0,0E0,0E0,0E0,0E0,0E0,0E0,0E0,0E0,0E0,0E0,0E0,0E0,0E0,0E0,0E0,0E0,0E0,0E0,0E0,0E0,0E0,0E0],"parents":[2147483647,0,0,1,1,2,2,3,3,4,4,5,5,6,6,7,7,8,8,9,9,10,10,11,11,12,12,13,13,14,14,15,15,16,16,17,17,18,18,19,19,20,20,21,21,22,22,23,23,24,24,25,25,26,26,27,27,28,28,29,29,30,30,31,31,32,32,33,33,34,34,35,35,36,36,37,37,38,38,39,39,40,40,41,41,42,42,43,43,44,44,45,45,46,46,47,47,48,48,49,49,50,50,51,51,52,52,53,53,54,54,55,55,56,56,57,57,58,58,59,59,60,60,61,61,62,62],"right_children":[2,4,6,8,10,12,14,16,18,20,22,24,26,28,30,32,34,36,38,40,42,44,46,48,50,52,54,56,58,60,62,64,66,68,70,72,74,76,78,80,82,84,86,88,90,92,94,96,98,100,102,104,106,108,110,112,114,116,118,120,122,124,126,-1,-1,-1,-1,-1,-1,-1,-1,-1,-1,-1,-1,-1,-1,-1,-1,-1,-1,-1,-1,-1,-1,-1,-1,-1,-1,-1,-1,-1,-1,-1,-1,-1,-1,-1,-1,-1,-1,-1,-1,-1,-1,-1,-1,-1,-1,-1,-1,-1,-1,-1,-1,-1,-1,-1,-1,-1,-1,-1,-1,-1,-1,-1,-1],"split_conditions":[3.4334195E-1,4.0793544E-1,3.3381617E-1,1.6293386E-1,2.1579269E-1,-3.365833E2,5.4512894E-1,1.5028968E-1,-4.05E1,6.542653E-1,6.5954614E-1,1.2613308E-1,1.06298685E-1,5.53149E-1,5.7825434E-1,1.2715296E-3,5.5277777E-1,9.307359E-2,-9.5E1,7.932307E-2,2.1825397E-1,-8.483445E2,5E-1,-1.80235E4,-1.98095E4,1.6228071E-1,5E-1,-8.791625E2,5E-1,5E-1,6.9059163E-1,-2.8004547E2,-6.3315E3,-1.875E2,2.0714286E-1,-1.81E4,5E-1,-3.28E3,-1.11E2,1.5727356E-2,-2.3769698E2,7.142414E-1,-9.76125E2,2.3303168E-1,4.2582417E-1,-1.0947363E3,-3.9E1,3.766892E-1,8.34612E-3,6.5686274E-1,-2.3715E3,6.1795646E-3,4.0588236E-1,2.1240601E-1,3.3307981E-1,-1.99495E4,5E-1,1.3188407E-1,6.640953E-1,-2.35E1,-2.3275E3,6.777801E-1,1.3188407E-1,-8.62008E-2,3.3375528E-1,-4.1297E-1,-2.7783703E-2,-2.0257096E-1,-1.12547316E-1,-9.002806E-2,9.167674E-2,-2.7973887E-1,-1.9646773E-1,-1.2017006E-1,-2.3901883E-1,-2.2755533E-1,-7.751569E-2,4.5453918E-1,1.1218561E-2,-2.4471556E-1,-1.0237826E-1,-2.4924423E-1,-1.8742636E-1,-2.7727586E-1,-3.4227517E-1,-2.9437938E-1,-1.9239348E-1,-3.132931E-1,-2.3299412E-1,-2.6602072E-1,-1.770584E-1,-2.2550899E-1,-3.5082343E-1,-3.0571613E-1,1.7274246E-2,-2.9286477E-1,-1.0644344E-1,-7.512976E-2,-2.1868034E-1,-3.3866867E-1,-1.712255E-1,-3.194241E-1,-2.6889196E-1,7.402029E-2,-1.70125E-1,-7.59752E-2,1.325388E-1,-2.2868216E-1,-1.4036416E-1,-3.0561894E-1,6.988812E-2,-3.578593E-1,-3.122604E-1,-3.1791598E-1,-2.6911503E-1,-3.405684E-1,-3.0261815E-1,-3.5315877E-1,-3.7265646E-1,-3.6174107E-1,-2.8136337E-1,-3.571942E-1,-3.2037786E-1,-3.5619617E-1,-3.7262064E-1,-3.8180664E-1,-3.5874572E-1],"split_indices":[25,12,12,25,25,22,25,12,21,12,12,12,12,12,12,12,16,17,7,25,15,22,10,6,6,17,9,22,8,10,12,23,24,21,14,6,8,24,20,25,23,12,22,17,15,23,27,14,12,15,24,12,15,15,12,6,0,17,12,21,24,25,14,0,0,0,0,0,0,0,0,0,0,0,0,0,0,0,0,0,0,0,0,0,0,0,0,0,0,0,0,0,0,0,0,0,0,0,0,0,0,0,0,0,0,0,0,0,0,0,0,0,0,0,0,0,0,0,0,0,0,0,0,0,0,0,0],"split_type":[0,0,0,0,0,0,0,0,0,0,0,0,0,0,0,0,0,0,0,0,0,0,0,0,0,0,0,0,0,0,0,0,0,0,0,0,0,0,0,0,0,0,0,0,0,0,0,0,0,0,0,0,0,0,0,0,0,0,0,0,0,0,0,0,0,0,0,0,0,0,0,0,0,0,0,0,0,0,0,0,0,0,0,0,0,0,0,0,0,0,0,0,0,0,0,0,0,0,0,0,0,0,0,0,0,0,0,0,0,0,0,0,0,0,0,0,0,0,0,0,0,0,0,0,0,0,0],"sum_hessian":[6.3460887E4,1.1647585E4,5.18133E4,3.8088535E3,7.838732E3,1.0181832E4,4.163147E4,1.1080114E3,2.700842E3,3.2879697E3,4.550762E3,7.2875127E3,2.8943193E3,2.1906426E4,1.9725043E4,3.4199307E2,7.660183E2,2.3841428E3,3.166993E2,2.3084368E3,9.7953296E2,3.139048E3,1.4117139E3,1.6288381E3,5.6586743E3,6.5085547E2,2.2434639E3,7.971154E3,1.3935271E4,7.5494414E3,1.2175601E4,1.0929858E1,3.310632E2,6.440045E2,1.220138E2,1.6809039E3,7.0323895E2,3.1274826E2,3.9510326E0,3.5893073E2,1.9495061E3,6.2599036E2,3.535426E2,1.4817596E3,1.6572886E3,7.2045135E2,6.912625E2,5.619208E2,1.0669175E3,1.6111935E3,4.0474807E3,5.110818E2,1.3977367E2,1.8051025E3,4.383614E2,2.8777122E3,5.0934414E3,1.0068249E4,3.8670232E3,3.59219E3,3.9572517E3,7.4354956E3,4.7401055E3,2.7202787E0,8.209579E0,5.604754E0,3.2545847E2,2.6135788E2,3.8264667E2,8.48114E1,3.72024E1,4.0663727E2,1.2742666E3,5.637056E2,1.3953336E2,3.4847374E1,2.779009E2,2.8105943E0,1.1404384E0,9.110585E1,2.6782486E2,1.11119E3,8.383161E2,3.887976E2,2.3719276E2,1.4451479E2,2.0902782E2,1.2536406E3,2.2811902E2,1.4537974E3,2.0349115E2,2.5751652E1,6.946997E2,6.854257E2,5.836764E0,5.362138E2,2.5706942E1,7.170358E1,9.9521387E2,1.5894938E3,2.1699768E1,1.3641104E3,2.6833704E3,3.2688187E1,4.783936E2,1.01968666E2,3.7805004E1,1.4403851E3,3.6471738E2,4.373034E2,1.057999E0,6.2636926E2,2.251343E3,1.2746534E3,3.818788E3,8.102838E3,1.9654109E3,1.851813E3,2.0152102E3,3.5163452E3,7.584456E1,1.62874E3,2.328512E3,3.810851E3,3.6246443E3,4.1437925E3,5.963129E2],"tree_param":{"num_deleted":"0","num_feature":"30","num_nodes":"127","size_leaf_vector":"0"}},{"base_weights":[-8.633578E-1,-6.8760777E-1,-9.572519E-1,-5.875077E-1,-8.9804584E-1,-7.0809007E-1,-1.0015136E0,-3.3337942E-1,-6.4736485E-1,-7.86979E-1,-9.592363E-1,-5.332704E-1,-7.602998E-1,-9.4454926E-1,-1.0737191E0,-1.5963615E-1,-4.3169883E-1,-4.8676038E-1,-7.208355E-1,-9.3378466E-1,-7.220605E-1,-1.0333025E0,-9.112821E-1,-5.937778E-1,-2.656538E-1,-7.0542955E-1,-8.938623E-1,-8.9817715E-1,-1.0314144E0,-1.0409465E0,-1.1115302E0,-7.71889E-1,-1.3084379E-1,-6.970056E-1,-3.814784E-1,-6.2937355E-1,-3.8302377E-1,-7.687886E-1,-5.6147987E-1,-9.3837374E-1,1.6188031E-1,-8.189247E-1,-6.273447E-1,-1.0540612E0,-9.0235376E-1,-1.0204022E0,-8.4869534E-1,-7.3785585E-1,-4.774228E-1,-4.8255002E-1,9.801732E-2,-8.96781E-1,-6.504636E-1,-9.142439E-1,-5.2417785E-1,-9.1540354E-1,-7.0156556E-1,-1.0533015E0,-9.1754377E-1,-1.0634264E0,-9.728098E-1,-1.1193708E0,-1.0209622E0,-8.748783E-1,5.3545654E-1,-6.769493E-2,-4.085073E-1,-8.1162566E-1,-3.8884273E-1,-3.129941E-1,-6.232513E-1,-1.6455351E-1,-6.5520746E-1,-6.336706E-1,-3.0326116E-1,-9.025454E-1,-7.271624E-1,-8.5375065E-1,-5.061513E-1,2.4687637E-1,-9.4191885E-1,-6.8361485E-1,7.9148763E-1,-8.49746E-1,-4.988295E-1,-3.2108754E-1,-6.823723E-1,-6.7129034E-1,-1.0586638E0,-9.1721386E-1,4.449517E-1,-1.02389E0,-1.213781E-1,-8.0288786E-1,-1.0097057E0,-6.383525E-1,-8.8692945E-1,-5.5552983E-1,-1.9838127E-1,-3.1912118E-1,-8.4191084E-1,2.772971E-1,-5.4512143E-1,-9.0648663E-1,6.459932E-1,-7.1252155E-1,-4.6598217E-1,-9.3162966E-1,-5.836417E-1,1.9629754E-1,-7.007632E-1,-9.765183E-1,-8.744927E-1,-8.0918276E-1,-4.1789237E-1,-1.0248066E0,-1.1148446E0,-9.390293E-1,-5.264559E-1,-1.0726901E0,-9.056678E-1,-9.1476834E-1,-1.0857944E0,7.872212E-2,-1.1196223E0,-1.0457965E0,-7.566837E-1],"categories":[],"categories_nodes":[],"categories_segments":[],"categories_sizes":[],"default_left":[1,1,1,1,1,1,1,1,1,1,1,1,1,1,1,1,1,1,1,1,1,1,1,1,1,1,1,1,1,1,1,1,1,1,1,1,1,1,1,1,1,1,1,1,1,1,1,1,1,1,1,1,1,1,1,1,1,1,1,1,1,1,1,0,0,0,0,0,0,0,0,0,0,0,0,0,0,0,0,0,0,0,0,0,0,0,0,0,0,0,0,0,0,0,0,0,0,0,0,0,0,0,0,0,0,0,0,0,0,0,0,0,0,0,0,0,0,0,0,0,0,0,0,0,0,0,0],"id":3,"left_children":[1,3,5,7,9,11,13,15,17,19,21,23,25,27,29,31,33,35,37,39,41,43,45,47,49,51,53,55,57,59,61,63,65,67,69,71,73,75,77,79,81,83,85,87,89,91,93,95,97,99,101,103,105,107,109,111,113,115,117,119,121,123,125,-1,-1,-1,-1,-1,-1,-1,-1,-1,-1,-1,-1,-1,-1,-1,-1,-1,-1,-1,-1,-1,-1,-1,-1,-1,-1,-1,-1,-1,-1,-1,-1,-1,-1,-1,-1,-1,-1,-1,-1,-1,-1,-1,-1,-1,-1,-1,-1,-1,-1,-1,-1,-1,-1,-1,-1,-1,-1,-1,-1,-1,-1,-1,-1],"loss_changes":[9.018242E2,4.0070215E2,3.923789E2,1.9616992E2,4.0959473E1,4.8699707E1,1.2346875E2,4.200934E1,1.2293457E2,2.0158447E1,1.3098389E1,1.9931E1,2.9713379E1,6.725293E1,1.5373047E1,1.561936E1,2.06857E1,4.8321045E1,5.4333008E1,3.5047607E0,1.3432373E1,3.251587E0,1.5578735E1,1.6596619E1,1.8235266E1,3.0334229E1,8.577026E0,3.675879E1,1.369873E1,9.93457E0,3.2451172E0,5.8339157E0,1.4927622E1,8.482094E0,2.173413E1,1.647174E1,3.7849426E1,3.000122E1,2.6434875E1,3.0233765E0,2.4756513E0,6.95813E0,1.2805237E1,1.6298828E0,4.7826996E0,2.6123047E0,1.0519409E1,6.1068115E0,1.2141983E1,8.224033E0,1.0179499E1,1.0368103E1,2.5853333E1,5.9959717E0,8.425856E0,2.4523438E1,2.694989E1,7.5009766E0,7.5421753E0,6.882324E0,1.0734253E1,1.7983398E0,2.5143433E0,0E0,0E0,0E0,0E0,0E0,0E0,0E0,0E0,0E0,0E0,0E0,0E0,0E0,0E0,0E0,0E0,0E0,0E0,0E0,0E0,0E0,0E0,0E0,0E0,0E0,0E0,0E0,0E0,0E0,0E0,0E0,0E0,0E0,0E0,0E0,0E0,0E0,0E0,0E0,0E0,0E0,0E0,0E0,0E0,0E0,0E0,0E0,0E0,0E0,0E0,0E0,0E0,0E0,0E0,0E0,0E0,0E0,0E0,0E0,0E0,0E0,0E0,0E0,0E0],"parents":[2147483647,0,0,1,1,2,2,3,3,4,4,5,5,6,6,7,7,8,8,9,9,10,10,11,11,12,12,13,13,14,14,15,15,16,16,17,17,18,18,19,19,20,20,21,21,22,22,23,23,24,24,25,25,26,26,27,27,28,28,29,29,30,30,31,31,32,32,33,33,34,34,35,35,36,36,37,37,38,38,39,39,40,40,41,41,42,42,43,43,44,44,45,45,46,46,47,47,48,48,49,49,50,50,51,51,52,52,53,53,54,54,55,55,56,56,57,57,58,58,59,59,60,60,61,61,62,62],"right_children":[2,4,6,8,10,12,14,16,18,20,22,24,26,28,30,32,34,36,38,40,42,44,46,48,50,52,54,56,58,60,62,64,66,68,70,72,74,76,78,80,82,84,86,88,90,92,94,96,98,100,102,104,106,108,110,112,114,116,118,120,122,124,126,-1,-1,-1,-1,-1,-1,-1,-1,-1,-1,-1,-1,-1,-1,-1,-1,-1,-1,-1,-1,-1,-1,-1,-1,-1,-1,-1,-1,-1,-1,-1,-1,-1,-1,-1,-1,-1,-1,-1,-1,-1,-1,-1,-1,-1,-1,-1,-1,-1,-1,-1,-1,-1,-1,-1,-1,-1,-1,-1,-1,-1,-1,-1,-1],"split_conditions":[4.597571E-1,5.361731E-1,3.1625196E-1,2.451838E-1,2.4785832E-1,1.3980949E-1,5.558371E-1,2.0687881E-1,2.0326772E-1,-1.98315E4,-1.80575E4,-6.45E1,5E-1,6.639929E-1,6.460163E-1,1.5E0,-1.94775E4,5E-1,2.3205128E-1,-2.8E1,-1.5965E3,1.21323526E-1,-2.3105E3,5E-1,2.6969698E-1,-1.93275E4,6.8990386E-1,4.361413E-1,2.6201373E-1,-1.34755E4,5.5277777E-1,-2.145E2,-9.857E3,-7.75E1,5E-1,1.0891483E-2,-2.405E3,-1.92695E4,-2.0365E4,-2.8725E3,1.0549149E-1,2.8285715E-1,5.5365533E-2,-2.735E3,9.444444E-1,-6.45E1,5E-1,6.4789927E-1,2.0416667E-1,5E-1,6.132479E-1,1.0555556E-1,1.5192309E-1,-3.82E2,1.8142354E-1,-8.711909E2,-1.125E1,5E-1,2.5E0,4.104278E-1,5E-1,-4.036E3,7.386364E-1,-2.624635E-1,1.6063696E-1,-2.030848E-2,-1.2255219E-1,-2.434877E-1,-1.16652824E-1,-9.389823E-2,-1.869754E-1,-4.9366053E-2,-1.9656225E-1,-1.9010119E-1,-9.0978354E-2,-2.7076364E-1,-2.1814874E-1,-2.561252E-1,-1.518454E-1,7.406291E-2,-2.8257567E-1,-2.0508446E-1,2.374463E-1,-2.5492382E-1,-1.4964886E-1,-9.632627E-2,-2.0471169E-1,-2.013871E-1,-3.1759918E-1,-2.7516416E-1,1.3348553E-1,-3.0716702E-1,-3.641343E-2,-2.4086636E-1,-3.029117E-1,-1.9150576E-1,-2.6607886E-1,-1.6665895E-1,-5.9514385E-2,-9.573636E-2,-2.5257325E-1,8.318914E-2,-1.6353643E-1,-2.71946E-1,1.9379796E-1,-2.1375647E-1,-1.3979466E-1,-2.7948892E-1,-1.7509252E-1,5.8889266E-2,-2.1022898E-1,-2.929555E-1,-2.6234782E-1,-2.4275483E-1,-1.2536772E-1,-3.07442E-1,-3.3445337E-1,-2.817088E-1,-1.5793677E-1,-3.2180706E-1,-2.7170035E-1,-2.744305E-1,-3.2573834E-1,2.3616636E-2,-3.3588672E-1,-3.1373897E-1,-2.2700512E-1],"split_indices":[12,25,25,25,12,25,25,12,12,6,6,21,8,12,12,3,6,10,15,29,24,17,24,10,15,6,16,15,15,6,16,20,6,21,8,12,24,6,6,21,12,17,12,27,16,27,8,12,17,8,18,13,17,7,25,22,23,8,4,15,8,11,19,0,0,0,0,0,0,0,0,0,0,0,0,0,0,0,0,0,0,0,0,0,0,0,0,0,0,0,0,0,0,0,0,0,0,0,0,0,0,0,0,0,0,0,0,0,0,0,0,0,0,0,0,0,0,0,0,0,0,0,0,0,0,0,0],"split_type":[0,0,0,0,0,0,0,0,0,0,0,0,0,0,0,0,0,0,0,0,0,0,0,0,0,0,0,0,0,0,0,0,0,0,0,0,0,0,0,0,0,0,0,0,0,0,0,0,0,0,0,0,0,0,0,0,0,0,0,0,0,0,0,0,0,0,0,0,0,0,0,0,0,0,0,0,0,0,0,0,0,0,0,0,0,0,0,0,0,0,0,0,0,0,0,0,0,0,0,0,0,0,0,0,0,0,0,0,0,0,0,0,0,0,0,0,0,0,0,0,0,0,0,0,0,0,0],"sum_hessian":[5.4688707E4,1.9046316E4,3.564239E4,1.2909426E4,6.136891E3,5.3790703E3,3.026332E4,2.4622625E3,1.0447164E4,2.184914E3,3.9519768E3,1.2395981E3,4.139472E3,1.6924973E4,1.3338348E4,8.9077313E2,1.5714894E3,3.281511E3,7.165653E3,6.6583093E2,1.5190833E3,1.5450571E3,2.4069197E3,1.0100172E3,2.2958087E2,2.9385413E3,1.2009312E3,1.1041769E4,5.883203E3,7.160504E3,6.1778433E3,3.8849617E1,8.519235E2,2.4807394E2,1.3234154E3,1.3796934E3,1.9018175E3,5.50521E3,1.6604427E3,6.631968E2,2.6341722E0,7.472438E2,7.718395E2,1.3275573E3,2.1749988E2,8.717389E2,1.5351809E3,4.4886404E2,5.611532E2,1.4360617E2,8.59747E1,6.5232117E2,2.28622E3,1.1367845E3,6.4146545E1,1.0148903E4,8.9286597E2,4.9277847E3,9.554185E2,5.373167E3,1.7873372E3,5.6751724E3,5.0267108E2,3.6319275E1,2.5303416E0,6.950846E2,1.5683891E2,1.7962817E2,6.8445755E1,1.0330807E3,2.903347E2,7.303153E1,1.3066617E3,4.5743253E2,1.444385E3,1.3017208E3,4.2034893E3,2.6200122E2,1.3984415E3,1.7730182E0,6.6142377E2,1.0877118E0,1.5464603E0,6.801034E2,6.714038E1,1.1860054E2,6.532389E2,1.7518509E1,1.3100387E3,2.1544287E2,2.0569994E0,8.682317E2,3.5072029E0,1.1998187E3,3.3536215E2,2.7235516E2,1.7650888E2,4.3765695E2,1.2349623E2,1.00011375E2,4.3594795E1,6.7677826E1,1.829687E1,6.4865295E2,3.6682408E0,1.7085994E3,5.776206E2,1.0782627E3,5.8521927E1,1.26052E1,5.1541344E1,4.060396E3,6.0885073E3,6.4595667E2,2.4690933E2,3.3803271E3,1.5474574E3,9.043352E2,5.1083298E1,5.069668E3,3.034989E2,1.1867748E3,6.0056244E2,1.1254607E0,5.674047E3,4.5678955E2,4.588154E1],"tree_param":{"num_deleted":"0","num_feature":"30","num_nodes":"127","size_leaf_vector":"0"}},{"base_weights":[-7.261728E-1,-5.6336963E-1,-8.3559287E-1,-4.7004098E-1,-7.713173E-1,-6.284852E-1,-9.000859E-1,-3.2216394E-1,-5.4833657E-1,-6.457542E-1,-8.3225596E-1,-4.8721963E-1,-7.0092136E-1,-8.4104747E-1,-9.687824E-1,-1.6792557E-1,-3.9506176E-1,-3.3206597E-1,-6.0072124E-1,-7.249031E-1,-5.119356E-1,-8.7723565E-1,-7.3472714E-1,-5.754625E-1,-3.6284378E-1,-6.080654E-1,-7.756995E-1,-8.0700195E-1,-9.6401614E-1,-9.428887E-1,-1.0316828E0,-7.989227E-2,-3.426473E-1,-4.1728616E-1,1.3616987E-1,-3.6244616E-1,2.5364494E-1,-6.7783123E-1,-4.9881533E-1,-7.401237E-1,-6.6019356E-2,-5.5938315E-1,-2.0345522E-1,-1.0084994E0,-8.52456E-1,-6.7755115E-1,-8.9652854E-1,-6.4451975E-1,-4.5662305E-1,-4.0744495E-1,1.8103576E-1,-5.132808E-1,-7.250372E-1,-7.884874E-1,-2.725354E-1,-7.6920485E-1,-9.2659235E-1,-8.603935E-1,-9.8586607E-1,-9.1973233E-1,-1.0132487E0,-1.0461447E0,-9.465435E-1,-7.6538527E-1,-4.936858E-2,-6.5733314E-1,-2.5219333E-1,-1.9127518E-1,-4.6144032E-1,-1.16991594E-1,3.8187906E-1,-6.3754E-2,-4.137163E-1,2.9938664E-2,7.748529E-1,-7.0644933E-1,-4.5459926E-1,-6.298801E-1,-4.0089542E-1,-6.770192E-1,-8.299036E-1,-3.9747E-1,4.7078046E-1,-5.7115394E-1,6.501623E-1,-3.99732E-1,1.521719E-1,-1.012477E0,1.1147332E-1,-9.0536547E-1,-7.81969E-1,-7.29767E-1,-4.4653353E-1,-1.8240428E-1,-9.1826046E-1,-6.004273E-1,-9.33693E-1,-2.1041678E-1,-5.39951E-1,-4.48977E-1,7.386026E-2,3.5416573E-1,-3.9224902E-1,-5.8073884E-1,-2.982943E-1,-8.238949E-1,-6.4381295E-1,-8.175311E-1,-6.3339615E-1,-6.469624E-1,6.1414383E-2,-8.622093E-1,-7.1359956E-1,-9.330803E-1,-5.098852E-1,-8.717774E-1,6.3702583E-1,-1.0059537E0,-8.930682E-1,-9.60908E-1,-8.4318006E-1,-1.0541099E0,-9.65633E-1,-1.0835392E0,-1.0248928E0,-8.0015725E-1,-1.0152348E0],"categories":[],"categories_nodes":[],"categories_segments":[],"categories_sizes":[],"default_left":[1,1,1,1,1,1,1,1,1,1,1,1,1,1,1,1,1,1,1,1,1,1,1,1,1,1,1,1,1,1,1,1,1,1,1,1,1,1,1,1,1,1,1,1,1,1,1,1,1,1,1,1,1,1,1,1,1,1,1,1,1,1,1,0,0,0,0,0,0,0,0,0,0,0,0,0,0,0,0,0,0,0,0,0,0,0,0,0,0,0,0,0,0,0,0,0,0,0,0,0,0,0,0,0,0,0,0,0,0,0,0,0,0,0,0,0,0,0,0,0,0,0,0,0,0,0,0],"id":4,"left_children":[1,3,5,7,9,11,13,15,17,19,21,23,25,27,29,31,33,35,37,39,41,43,45,47,49,51,53,55,57,59,61,63,65,67,69,71,73,75,77,79,81,83,85,87,89,91,93,95,97,99,101,103,105,107,109,111,113,115,117,119,121,123,125,-1,-1,-1,-1,-1,-1,-1,-1,-1,-1,-1,-1,-1,-1,-1,-1,-1,-1,-1,-1,-1,-1,-1,-1,-1,-1,-1,-1,-1,-1,-1,-1,-1,-1,-1,-1,-1,-1,-1,-1,-1,-1,-1,-1,-1,-1,-1,-1,-1,-1,-1,-1,-1,-1,-1,-1,-1,-1,-1,-1,-1,-1,-1,-1],"loss_changes":[8.3731445E2,3.6656836E2,3.750879E2,1.5094556E2,4.4265137E1,6.802881E1,8.615625E1,5.0764526E1,9.646777E1,1.9939941E1,1.6633545E1,2.4683655E1,3.0180664E1,4.7534668E1,1.515918E1,2.2316715E1,3.629239E1,2.973645E1,5.3626953E1,1.2011169E1,1.0367462E1,7.8911133E0,1.0950012E1,1.0579895E1,2.2973282E1,2.1512085E1,1.5495728E1,4.016797E1,4.805664E0,1.0518066E1,2.5532227E0,2.0201286E1,1.3679386E1,2.9312561E1,7.7578983E0,2.4234665E1,9.624065E0,2.4636108E1,3.776062E1,6.096863E0,5.2135425E0,9.199402E0,6.8338065E0,1.9917908E0,7.7562256E0,1.0858765E1,4.846863E0,1.0093811E1,9.947723E0,1.7479523E1,7.3088794E0,1.5688965E1,6.544403E0,1.0205444E1,7.797793E0,3.49541E1,5.3829346E0,8.101898E0,2.9331055E0,1.5891113E1,2.348755E0,8.366699E-1,3.494812E0,0E0,0E0,0E0,0E0,0E0,0E0,0E0,0E0,0E0,0E0,0E0,0E0,0E0,0E0,0E0,0E0,0E0,0E0,0E0,0E0,0E0,0E0,0E0,0E0,0E0,0E0,0E0,0E0,0E0,0E0,0E0,0E0,0E0,0E0,0E0,0E0,0E0,0E0,0E0,0E0,0E0,0E0,0E0,0E0,0E0,0E0,0E0,0E0,0E0,0E0,0E0,0E0,0E0,0E0,0E0,0E0,0E0,0E0,0E0,0E0,0E0,0E0,0E0,0E0],"parents":[2147483647,0,0,1,1,2,2,3,3,4,4,5,5,6,6,7,7,8,8,9,9,10,10,11,11,12,12,13,13,14,14,15,15,16,16,17,17,18,18,19,19,20,20,21,21,22,22,23,23,24,24,25,25,26,26,27,27,28,28,29,29,30,30,31,31,32,32,33,33,34,34,35,35,36,36,37,37,38,38,39,39,40,40,41,41,42,42,43,43,44,44,45,45,46,46,47,47,48,48,49,49,50,50,51,51,52,52,53,53,54,54,55,55,56,56,57,57,58,58,59,59,60,60,61,61,62,62],"right_children":[2,4,6,8,10,12,14,16,18,20,22,24,26,28,30,32,34,36,38,40,42,44,46,48,50,52,54,56,58,60,62,64,66,68,70,72,74,76,78,80,82,84,86,88,90,92,94,96,98,100,102,104,106,108,110,112,114,116,118,120,122,124,126,-1,-1,-1,-1,-1,-1,-1,-1,-1,-1,-1,-1,-1,-1,-1,-1,-1,-1,-1,-1,-1,-1,-1,-1,-1,-1,-1,-1,-1,-1,-1,-1,-1,-1,-1,-1,-1,-1,-1,-1,-1,-1,-1,-1,-1,-1,-1,-1,-1,-1,-1,-1,-1,-1,-1,-1,-1,-1,-1,-1,-1,-1,-1,-1],"split_conditions":[4.882639E-1,5.361731E-1,3.953575E-1,3.4660152E-1,2.4785832E-1,2.1579269E-1,5.6649363E-1,2.0629099E-1,1.5281317E-1,-1.43415E4,-1.38525E4,-6.696607E2,6.1583316E-1,7.0195305E-1,6.9059163E-1,5.6696427E-1,5.419581E-1,5.419581E-1,-2.8125E1,4.5804197E-1,3.2051283E-1,-4.4995E3,5E-1,2.3606811E-1,5.419581E-1,5.1E-1,-1.95E1,5E-1,4.58795E-1,5E-1,1.396104E-1,1.5E0,-1.84695E4,1.2025949E-1,-1.755E2,2.3766726E-2,3.541667E-1,2.8348213E-1,5E-1,-1.475E2,1.7406727E-1,2.4615413E-1,5E-1,-4.55E1,5E-1,2.45E-1,5.415498E-1,7.1566075E-1,5.6568474E-1,-1.245E2,5E-1,2.7149877E-1,5E-1,2.3303168E-1,5E-1,-1.78035E4,8.893281E-2,-6.75E1,1.2916666E-1,-1.52775E4,-1.4725E3,5E-1,7.1330094E-1,-2.2961558E-1,-1.4810574E-2,-1.9719996E-1,-7.5658E-2,-5.7382558E-2,-1.384321E-1,-3.509748E-2,1.14563726E-1,-1.9126201E-2,-1.2411489E-1,8.9815995E-3,2.3245586E-1,-2.119348E-1,-1.3637978E-1,-1.8896402E-1,-1.2026863E-1,-2.0310576E-1,-2.4897109E-1,-1.1924101E-1,1.4123414E-1,-1.7134619E-1,1.9504869E-1,-1.19919606E-1,4.565157E-2,-3.0374312E-1,3.3441998E-2,-2.7160966E-1,-2.3459071E-1,-2.1893011E-1,-1.3396007E-1,-5.4721285E-2,-2.7547815E-1,-1.801282E-1,-2.8010792E-1,-6.312504E-2,-1.6198531E-1,-1.346931E-1,2.2158079E-2,1.0624973E-1,-1.1767471E-1,-1.7422166E-1,-8.94883E-2,-2.4716848E-1,-1.9314389E-1,-2.4525934E-1,-1.9001885E-1,-1.9408873E-1,1.8424315E-2,-2.5866282E-1,-2.1407987E-1,-2.799241E-1,-1.5296556E-1,-2.6153323E-1,1.9110776E-1,-3.0178612E-1,-2.6792046E-1,-2.882724E-1,-2.5295404E-1,-3.1623298E-1,-2.896899E-1,-3.250618E-1,-3.0746785E-1,-2.4004719E-1,-3.0457047E-1],"split_indices":[12,25,25,25,12,25,25,12,12,6,6,22,12,12,12,18,17,15,23,14,15,24,8,15,15,18,21,8,25,8,17,3,6,25,21,12,17,17,10,24,12,12,2,27,10,15,25,12,12,27,8,15,10,17,10,6,13,27,17,6,24,0,12,0,0,0,0,0,0,0,0,0,0,0,0,0,0,0,0,0,0,0,0,0,0,0,0,0,0,0,0,0,0,0,0,0,0,0,0,0,0,0,0,0,0,0,0,0,0,0,0,0,0,0,0,0,0,0,0,0,0,0,0,0,0,0,0],"split_type":[0,0,0,0,0,0,0,0,0,0,0,0,0,0,0,0,0,0,0,0,0,0,0,0,0,0,0,0,0,0,0,0,0,0,0,0,0,0,0,0,0,0,0,0,0,0,0,0,0,0,0,0,0,0,0,0,0,0,0,0,0,0,0,0,0,0,0,0,0,0,0,0,0,0,0,0,0,0,0,0,0,0,0,0,0,0,0,0,0,0,0,0,0,0,0,0,0,0,0,0,0,0,0,0,0,0,0,0,0,0,0,0,0,0,0,0,0,0,0,0,0,0,0,0,0,0,0],"sum_hessian":[4.7028824E4,1.8905695E4,2.8123129E4,1.3051386E4,5.854309E3,6.6805376E3,2.144259E4,4.5198506E3,8.531535E3,1.91666E3,3.937649E3,2.267048E3,4.4134897E3,1.1539055E4,9.903536E3,1.4516759E3,3.0681748E3,1.6649814E3,6.866554E3,1.2015625E3,7.150975E2,2.6893452E3,1.2483038E3,1.3240361E3,9.4301184E2,1.9728417E3,2.440648E3,9.042956E3,2.4960989E3,7.0268335E3,2.8767021E3,9.662763E2,4.8539966E2,2.9451763E3,1.2299862E2,1.5832416E3,8.17399E1,3.905611E3,2.960943E3,1.1743119E3,2.7250599E1,6.1906525E2,9.603222E1,4.2076367E2,2.2685815E3,9.2619934E2,3.2210446E2,8.346187E2,4.8941748E2,8.7177246E2,7.123937E1,1.0927509E3,8.800909E2,2.3796033E3,6.104472E1,6.8769097E3,2.1660461E3,4.4170456E2,2.0543945E3,5.297451E3,1.7293827E3,2.4493608E3,4.2734143E2,4.0165905E1,9.2611035E2,1.0697406E2,3.784256E2,4.822135E2,2.4629626E3,6.083863E1,6.2159985E1,2.3227643E2,1.3509651E3,5.793235E1,2.3807549E1,3.4598918E3,4.4571924E2,1.2638547E3,1.6970884E3,6.946188E2,4.7969315E2,1.700828E1,1.024232E1,6.136216E2,5.4437165E0,6.1799816E1,3.4232407E1,4.193702E2,1.3934342E0,1.2891011E3,9.7948047E2,7.536879E2,1.7251143E2,9.790064E0,3.1231442E2,7.268646E2,1.0775409E2,1.2464837E2,3.647691E2,8.025843E2,6.918818E1,5.5009052E1,1.6230322E1,8.304672E2,2.622836E2,3.9283234E2,4.8725854E2,2.0006694E3,3.789339E2,2.8336416E1,3.2708305E1,2.567705E3,4.3092046E3,2.1316184E3,3.44276E1,4.387866E2,2.9179947E0,1.6807316E3,3.736628E2,3.437141E3,1.8603098E3,9.193279E2,8.100549E2,8.694709E2,1.5798899E3,1.4052362E2,2.868178E2],"tree_param":{"num_deleted":"0","num_feature":"30","num_nodes":"127","size_leaf_vector":"0"}},{"base_weights":[-6.057859E-1,-4.476225E-1,-7.198439E-1,-3.7112296E-1,-6.7428184E-1,-5.1772773E-1,-7.9482025E-1,-2.547464E-1,-4.521168E-1,-4.5607775E-1,-7.0643556E-1,-4.069773E-1,-6.088978E-1,-8.361229E-1,-6.6064733E-1,-4.4187063E-1,-1.9539192E-1,-2.9361597E-1,-5.1876867E-1,-4.7411847E-1,3.167831E-1,-7.876695E-1,-6.448788E-1,-3.3398658E-1,-5.48368E-1,-7.537094E-1,-5.3702044E-1,-7.859619E-1,-8.900463E-1,-6.037943E-1,-8.796285E-1,-5.208325E-1,-2.2554322E-1,-1.3779645E-1,-4.574565E-1,-3.6230952E-1,-1.3553372E-1,-4.3332943E-1,-6.20177E-1,-6.2638515E-1,-3.850506E-1,7.9159063E-1,-3.1029087E-1,-6.764825E-1,-8.2213694E-1,-7.707598E-1,-5.7849437E-1,-4.0233737E-1,-1.7852436E-1,-6.855182E-1,-4.7400683E-1,-8.114473E-1,-6.635831E-1,-7.279826E-1,-4.73162E-1,-8.745294E-1,-7.455783E-1,-8.49966E-1,-9.3386316E-1,-6.420855E-1,-2.6046863E-1,-9.0176606E-1,-4.514874E-1,-5.633682E-1,-2.0187934E-1,5.2040783E-3,-3.713882E-1,-2.013934E-1,6.1092217E-2,-9.137539E-2,-4.9912652E-1,-1.9731265E-1,-4.3983343E-1,-2.0409307E-1,1.7098047E-1,-4.7002524E-1,-5.1864304E-2,-9.34737E-1,-5.977386E-1,-6.374246E-1,6.895917E-1,-4.048986E-1,4.9988654E-1,1.1559892E0,-4.0446648E-1,3.33067E-1,-9.0258676E-1,-5.4044175E-1,-8.023667E-1,-8.566772E-1,-6.798275E-1,-7.0127755E-1,-8.72107E-1,-5.259254E-1,-7.7528316E-1,-4.96405E-1,-2.703257E-1,-4.3593588E-1,-8.46734E-2,-7.0039976E-1,5.9249806E-1,-5.5327475E-1,-2.0442611E-1,-2.1112877E-1,-8.249649E-1,3.9176616E-1,-6.859223E-1,-7.3780423E-1,1.2570584E0,-5.5891407E-1,-3.1551895E-1,-8.782142E-1,-3.982721E-1,-8.4194237E-1,-6.971085E-1,-8.718877E-1,-7.1432894E-1,-9.104991E-1,-9.9016005E-1,-6.03656E-1,-7.8922784E-1,-5.362995E-1,-1.6000757E-1,4.9934447E-1,-9.061725E-1,-7.8545797E-1,-8.500414E-2],"categories":[],"categories_nodes":[],"categories_segments":[],"categories_sizes":[],"default_left":[1,1,1,1,1,1,1,1,1,1,1,1,1,1,1,1,1,1,1,1,1,1,1,1,1,1,1,1,1,1,1,1,1,1,1,1,1,1,1,1,1,1,1,1,1,1,1,1,1,1,1,1,1,1,1,1,1,1,1,1,1,1,1,0,0,0,0,0,0,0,0,0,0,0,0,0,0,0,0,0,0,0,0,0,0,0,0,0,0,0,0,0,0,0,0,0,0,0,0,0,0,0,0,0,0,0,0,0,0,0,0,0,0,0,0,0,0,0,0,0,0,0,0,0,0,0,0],"id":5,"left_children":[1,3,5,7,9,11,13,15,17,19,21,23,25,27,29,31,33,35,37,39,41,43,45,47,49,51,53,55,57,59,61,63,65,67,69,71,73,75,77,79,81,83,85,87,89,91,93,95,97,99,101,103,105,107,109,111,113,115,117,119,121,123,125,-1,-1,-1,-1,-1,-1,-1,-1,-1,-1,-1,-1,-1,-1,-1,-1,-1,-1,-1,-1,-1,-1,-1,-1,-1,-1,-1,-1,-1,-1,-1,-1,-1,-1,-1,-1,-1,-1,-1,-1,-1,-1,-1,-1,-1,-1,-1,-1,-1,-1,-1,-1,-1,-1,-1,-1,-1,-1,-1,-1,-1,-1,-1,-1],"loss_changes":[7.3520703E2,2.9600854E2,3.5854883E2,1.2031482E2,2.9919067E1,6.449829E1,9.51875E1,5.8172363E1,7.942163E1,7.9079742E0,1.826831E1,2.9727661E1,3.618225E1,3.5021484E1,5.0154175E1,2.144545E1,6.0070984E1,2.4189606E1,4.566211E1,7.137985E0,4.202878E0,5.630005E0,1.745111E1,2.026683E1,9.722992E0,5.515991E0,2.8343933E1,2.384961E1,1.0370117E1,4.236438E1,7.5253296E0,1.242244E1,1.1421246E1,4.1343685E1,1.0898071E1,1.980809E1,1.4276927E1,4.0296753E1,1.6534424E1,3.3336487E0,6.2776947E0,3.886921E0,2.7567596E0,6.2046204E0,5.451599E0,4.574402E0,1.4139526E1,1.636586E1,1.4127951E1,6.9600067E0,1.3607742E1,5.5442505E0,1.1108978E1,1.2385468E1,2.3694977E1,3.4047852E0,2.1420654E1,9.281738E0,3.0795898E0,1.5978149E1,8.956186E0,5.359375E0,5.2145586E0,0E0,0E0,0E0,0E0,0E0,0E0,0E0,0E0,0E0,0E0,0E0,0E0,0E0,0E0,0E0,0E0,0E0,0E0,0E0,0E0,0E0,0E0,0E0,0E0,0E0,0E0,0E0,0E0,0E0,0E0,0E0,0E0,0E0,0E0,0E0,0E0,0E0,0E0,0E0,0E0,0E0,0E0,0E0,0E0,0E0,0E0,0E0,0E0,0E0,0E0,0E0,0E0,0E0,0E0,0E0,0E0,0E0,0E0,0E0,0E0,0E0,0E0,0E0,0E0],"parents":[2147483647,0,0,1,1,2,2,3,3,4,4,5,5,6,6,7,7,8,8,9,9,10,10,11,11,12,12,13,13,14,14,15,15,16,16,17,17,18,18,19,19,20,20,21,21,22,22,23,23,24,24,25,25,26,26,27,27,28,28,29,29,30,30,31,31,32,32,33,33,34,34,35,35,36,36,37,37,38,38,39,39,40,40,41,41,42,42,43,43,44,44,45,45,46,46,47,47,48,48,49,49,50,50,51,51,52,52,53,53,54,54,55,55,56,56,57,57,58,58,59,59,60,60,61,61,62,62],"right_children":[2,4,6,8,10,12,14,16,18,20,22,24,26,28,30,32,34,36,38,40,42,44,46,48,50,52,54,56,58,60,62,64,66,68,70,72,74,76,78,80,82,84,86,88,90,92,94,96,98,100,102,104,106,108,110,112,114,116,118,120,122,124,126,-1,-1,-1,-1,-1,-1,-1,-1,-1,-1,-1,-1,-1,-1,-1,-1,-1,-1,-1,-1,-1,-1,-1,-1,-1,-1,-1,-1,-1,-1,-1,-1,-1,-1,-1,-1,-1,-1,-1,-1,-1,-1,-1,-1,-1,-1,-1,-1,-1,-1,-1,-1,-1,-1,-1,-1,-1,-1,-1,-1,-1,-1,-1,-1],"split_conditions":[4.882639E-1,5.717995E-1,4.1272265E-1,2.5921094E-1,1.3074076E-1,2.6155245E-1,-3.827083E2,-1.85125E4,3.2410124E-1,6.125E-1,-1.7434E4,6.5564156E-1,5E-1,6.1184776E-1,7.010853E-1,5.119048E-1,5E-1,4.2206478E-1,4.7213623E-1,-1.8027E4,-5.25E2,6.288326E-1,-2.3235E3,2.8174603E-1,-2.355E2,3.198052E-1,-1.94285E4,5E-1,6.480763E-1,3.4549072E-1,2.5E0,3.766892E-1,3.2094932E-1,2.8174603E-1,-1.63935E4,1.6293386E-1,-5.75E1,4.4722223E-1,-5.4545E3,6.125E-1,7.2077924E-1,4.6428573E-1,-4.57E2,-7.6E1,-1.4155E3,7.039549E-1,5E-1,-2.194697E2,3.726852E-1,-8.518E3,1.7028986E-1,-2.4715E3,4.9780968E-1,1.2698413E-1,-1.0235E3,1.7156863E-1,-1.88435E4,1.4835165E-1,7.3101366E-1,5E-1,5E-1,-3.785E2,5E-1,-1.6901046E-1,-6.0563803E-2,1.5612235E-3,-1.1141647E-1,-6.041802E-2,1.8327666E-2,-2.7412618E-2,-1.4973797E-1,-5.9193797E-2,-1.3195004E-1,-6.122792E-2,5.1294144E-2,-1.4100757E-1,-1.55592915E-2,-2.804211E-1,-1.7932159E-1,-1.9122739E-1,2.0687751E-1,-1.2146959E-1,1.4996597E-1,3.4679675E-1,-1.2133995E-1,9.99201E-2,-2.7077603E-1,-1.6213253E-1,-2.4071E-1,-2.5700316E-1,-2.0394826E-1,-2.1038328E-1,-2.616321E-1,-1.5777762E-1,-2.3258495E-1,-1.489215E-1,-8.109771E-2,-1.3078077E-1,-2.540202E-2,-2.1011993E-1,1.7774943E-1,-1.6598243E-1,-6.1327834E-2,-6.333864E-2,-2.4748947E-1,1.17529854E-1,-2.057767E-1,-2.2134128E-1,3.7711754E-1,-1.6767423E-1,-9.4655685E-2,-2.6346427E-1,-1.1948163E-1,-2.5258273E-1,-2.0913257E-1,-2.615663E-1,-2.142987E-1,-2.7314973E-1,-2.9704803E-1,-1.810968E-1,-2.3676836E-1,-1.6088986E-1,-4.8002273E-2,1.4980334E-1,-2.7185178E-1,-2.356374E-1,-2.5501244E-2],"split_indices":[12,25,25,12,12,25,22,6,25,17,6,12,0,25,12,19,8,16,18,6,21,25,24,15,21,16,6,0,12,15,4,15,25,15,6,25,21,15,24,14,16,16,11,24,26,25,8,23,19,6,17,27,12,13,24,13,6,17,12,8,0,21,10,0,0,0,0,0,0,0,0,0,0,0,0,0,0,0,0,0,0,0,0,0,0,0,0,0,0,0,0,0,0,0,0,0,0,0,0,0,0,0,0,0,0,0,0,0,0,0,0,0,0,0,0,0,0,0,0,0,0,0,0,0,0,0,0],"split_type":[0,0,0,0,0,0,0,0,0,0,0,0,0,0,0,0,0,0,0,0,0,0,0,0,0,0,0,0,0,0,0,0,0,0,0,0,0,0,0,0,0,0,0,0,0,0,0,0,0,0,0,0,0,0,0,0,0,0,0,0,0,0,0,0,0,0,0,0,0,0,0,0,0,0,0,0,0,0,0,0,0,0,0,0,0,0,0,0,0,0,0,0,0,0,0,0,0,0,0,0,0,0,0,0,0,0,0,0,0,0,0,0,0,0,0,0,0,0,0,0,0,0,0,0,0,0,0],"sum_hessian":[4.077157E4,1.7084938E4,2.3686633E4,1.277567E4,4.309267E3,6.4113247E3,1.7275309E4,5.2443853E3,7.5312847E3,5.553941E2,3.7538728E3,2.8972742E3,3.5140505E3,1.3205127E4,4.0701807E3,1.2613474E3,3.9830378E3,2.2310837E3,5.3002007E3,5.431031E2,1.22909975E1,1.6132014E3,2.1406716E3,1.9130529E3,9.842213E2,1.1624908E3,2.3515598E3,6.8493047E3,6.3558223E3,3.2342458E3,8.35935E2,9.2302545E2,3.3832193E2,3.266636E3,7.16402E2,1.5543568E3,6.7672687E2,2.8794556E3,2.4207454E3,1.9821335E2,3.4488977E2,6.8454256E0,5.445572E0,3.8662653E2,1.2265748E3,7.3545636E2,1.4052152E3,1.3277181E3,5.853348E2,3.431337E2,6.410876E2,7.0368414E2,4.5880673E2,5.8669824E2,1.7648615E3,2.1385264E3,4.7107783E3,3.330101E3,3.025721E3,2.9089407E3,3.2530508E2,7.9378503E2,4.214998E1,8.137387E2,1.0928679E2,1.3139725E2,2.0692467E2,2.4751619E3,7.914741E2,7.3538795E1,6.4286316E2,4.9799707E2,1.0563599E3,5.533017E2,1.2342522E2,2.6265566E3,2.5289902E2,1.584731E2,2.2622722E3,1.9707576E2,1.1375952E0,3.3785458E2,7.0351915E0,5.272555E0,1.5728707E0,2.8200607E0,2.625511E0,1.8836118E2,1.9826535E2,9.829748E2,2.4360005E2,4.4101907E2,2.9443726E2,1.1118694E3,2.9334583E2,7.73666E2,5.5405206E2,1.5541695E2,4.2991785E2,3.3963092E2,3.5027812E0,4.9460178E2,1.464858E2,1.586212E1,6.87822E2,9.167729E0,4.49639E2,5.844349E2,2.263375E0,1.1414231E3,6.2343835E2,2.1212705E3,1.7255985E1,1.5710208E3,3.1397576E3,2.8620999E3,4.6800134E2,2.1504321E3,8.75289E2,2.3105828E3,5.983578E2,8.569054E1,2.3961455E2,2.1364453E0,7.9164856E2,2.145507E1,2.0694908E1],"tree_param":{"num_deleted":"0","num_feature":"30","num_nodes":"127","size_leaf_vector":"0"}},{"base_weights":[-4.9768347E-1,-3.7429845E-1,-6.410451E-1,-3.035813E-1,-5.9164906E-1,-4.5320344E-1,-7.236013E-1,-1.2541759E-1,-3.47492E-1,-4.467171E-1,-6.501964E-1,-2.4954826E-1,-4.9544433E-1,-7.679784E-1,-5.895982E-1,-6.961754E-2,-3.463907E-1,-4.4961998E-1,-2.7366877E-1,-5.3718865E-1,-3.1418678E-1,-7.472952E-1,-5.882925E-1,-4.9737337E-1,-1.8114634E-1,-4.3862456E-1,-6.379638E-1,-7.958313E-1,-6.611496E-1,-6.3818645E-1,-3.0572352E-1,-2.8294843E-1,-1.6685E-2,-3.6506507E-1,6.0681623E-1,-3.5239998E-1,-5.221379E-1,-4.3572417E-1,-1.8420705E-1,2.213811E-1,-5.4925334E-1,-3.891327E-1,-7.527929E-2,-7.7726865E-1,-5.7977825E-1,-5.34289E-1,-7.776904E-1,-6.630198E-1,-2.0116366E-1,8.3382905E-2,-2.3912887E-1,-6.464159E-1,-3.781493E-1,-5.622345E-1,-7.268864E-1,-7.635562E-1,-8.642783E-1,-6.935249E-1,-4.2631572E-1,-5.5874145E-1,-8.008914E-1,1.4264138E0,-3.1650493E-1,-3.2121313E-1,6.714082E-1,2.4655119E-1,-6.1753046E-2,-9.0570845E-2,-4.2479202E-1,-4.7073647E-1,8.2142544E-1,-4.3789822E-1,-2.6505604E-1,-5.33503E-1,1.7049667E-1,-3.4769076E-1,-5.533036E-1,-2.4583119E-1,2.041445E-2,-2.0984739E-1,1.648213E0,-5.6329834E-1,6.2039364E-2,-4.2596862E-1,1.16418205E-1,-1.3281608E-1,1.7343391E0,-7.825129E-1,-1.472575E-1,-6.352779E-1,1.7155086E-1,-6.6712344E-1,-4.501145E-1,-8.1646574E-1,-2.890577E-1,-7.1181005E-1,6.2463045E-1,2.0708261E-1,-4.041758E-1,-3.2787323E-2,8.188867E-1,5.233442E-1,-2.6417956E-1,-6.546163E-1,7.042861E-1,-6.15328E-1,-3.3399382E-1,-5.836219E-1,1.528238E-1,-7.558861E-1,-3.4422722E-1,-8.207255E-1,-7.0486504E-1,-7.987034E-1,-8.978041E-1,-6.475473E-1,-8.330016E-1,6.4623386E-2,-5.3926E-1,-6.4179057E-1,-4.6012908E-1,-7.468648E-1,-9.568624E-1,-2.557896E-1,-6.589623E-1],"categories":[],"categories_nodes":[],"categories_segments":[],"categories_sizes":[],"default_left":[1,1,1,1,1,1,1,1,1,1,1,1,1,1,1,1,1,1,1,1,1,1,1,1,1,1,1,1,1,1,1,1,1,1,1,1,1,1,1,1,1,1,1,1,1,1,1,1,1,1,1,1,1,1,1,1,1,1,1,1,1,0,1,0,0,0,0,0,0,0,0,0,0,0,0,0,0,0,0,0,0,0,0,0,0,0,0,0,0,0,0,0,0,0,0,0,0,0,0,0,0,0,0,0,0,0,0,0,0,0,0,0,0,0,0,0,0,0,0,0,0,0,0,0,0],"id":6,"left_children":[1,3,5,7,9,11,13,15,17,19,21,23,25,27,29,31,33,35,37,39,41,43,45,47,49,51,53,55,57,59,61,63,65,67,69,71,73,75,77,79,81,83,85,87,89,91,93,95,97,99,101,103,105,107,109,111,113,115,117,119,121,-1,123,-1,-1,-1,-1,-1,-1,-1,-1,-1,-1,-1,-1,-1,-1,-1,-1,-1,-1,-1,-1,-1,-1,-1,-1,-1,-1,-1,-1,-1,-1,-1,-1,-1,-1,-1,-1,-1,-1,-1,-1,-1,-1,-1,-1,-1,-1,-1,-1,-1,-1,-1,-1,-1,-1,-1,-1,-1,-1,-1,-1,-1,-1],"loss_changes":[6.339619E2,2.9603467E2,2.5683008E2,1.13729004E2,3.9844727E1,4.345398E1,6.804199E1,3.54515E1,8.7836914E1,1.618753E1,1.9797485E1,1.4695343E1,3.3686523E1,2.520996E1,3.9387817E1,2.5948095E1,1.0542274E1,3.431537E1,9.8131805E1,7.5282593E0,9.923065E0,6.1122437E0,2.0661621E1,9.095535E0,1.0528322E1,3.7480103E1,7.6276245E0,1.4485352E1,1.3348816E1,3.1214355E1,8.319725E0,1.6898441E1,2.1873459E1,9.294762E0,3.0498466E0,1.5519196E1,2.2137634E1,2.4740936E1,5.506479E1,8.580183E0,6.8769836E0,7.924423E0,1.41792555E1,3.538147E0,8.545128E0,1.766455E1,8.385071E0,7.9959335E0,5.793667E0,1.0614581E1,1.0876602E1,7.9413147E0,2.4171967E1,1.0013245E1,5.7928467E0,1.508252E1,4.095825E0,9.564758E0,1.2235672E1,1.3210632E1,6.0376587E0,0E0,8.554695E0,0E0,0E0,0E0,0E0,0E0,0E0,0E0,0E0,0E0,0E0,0E0,0E0,0E0,0E0,0E0,0E0,0E0,0E0,0E0,0E0,0E0,0E0,0E0,0E0,0E0,0E0,0E0,0E0,0E0,0E0,0E0,0E0,0E0,0E0,0E0,0E0,0E0,0E0,0E0,0E0,0E0,0E0,0E0,0E0,0E0,0E0,0E0,0E0,0E0,0E0,0E0,0E0,0E0,0E0,0E0,0E0,0E0,0E0,0E0,0E0,0E0,0E0],"parents":[2147483647,0,0,1,1,2,2,3,3,4,4,5,5,6,6,7,7,8,8,9,9,10,10,11,11,12,12,13,13,14,14,15,15,16,16,17,17,18,18,19,19,20,20,21,21,22,22,23,23,24,24,25,25,26,26,27,27,28,28,29,29,30,30,31,31,32,32,33,33,34,34,35,35,36,36,37,37,38,38,39,39,40,40,41,41,42,42,43,43,44,44,45,45,46,46,47,47,48,48,49,49,50,50,51,51,52,52,53,53,54,54,55,55,56,56,57,57,58,58,59,59,60,60,62,62],"right_children":[2,4,6,8,10,12,14,16,18,20,22,24,26,28,30,32,34,36,38,40,42,44,46,48,50,52,54,56,58,60,62,64,66,68,70,72,74,76,78,80,82,84,86,88,90,92,94,96,98,100,102,104,106,108,110,112,114,116,118,120,122,-1,124,-1,-1,-1,-1,-1,-1,-1,-1,-1,-1,-1,-1,-1,-1,-1,-1,-1,-1,-1,-1,-1,-1,-1,-1,-1,-1,-1,-1,-1,-1,-1,-1,-1,-1,-1,-1,-1,-1,-1,-1,-1,-1,-1,-1,-1,-1,-1,-1,-1,-1,-1,-1,-1,-1,-1,-1,-1,-1,-1,-1,-1,-1],"split_conditions":[5.498496E-1,5.717995E-1,4.356199E-1,2.4120146E-1,2.5821072E-1,1.552165E-1,-4.135833E2,5E-1,5E-1,-1.47365E4,-1.78555E4,-1.1626292E3,5E-1,5.7189543E-2,2.649123E-1,-1.8754E4,-1.15E1,3.0779022E-1,-1.8585E3,8.124517E-3,-5E-1,1.09126985E-1,5E-1,-7.36E2,6.4454496E-2,-1.9474E4,6.64088E-1,6.924622E-1,5.857843E-1,6.8441856E-1,-2.905E2,6.458334E-1,7.6729E-2,1.5579379E-1,-1.31E3,-1.6803E4,1.4835165E-1,3.9426553E-1,2.5E0,-6.161E2,4.6862745E-1,3.5573125E-1,2.5493234E-1,6.594203E-1,-5.2E2,-1.1285E3,-8.05E1,-1.712625E2,-1.321E3,-1.305E2,-5.475E2,1.3392857E-1,1.5E0,-1.205E2,-5.305E2,5E-1,5.590278E-1,5E-1,3.452381E-1,-1.4939E4,7.479568E-1,4.2792416E-1,7.1989334E-1,-9.636394E-2,2.0142247E-1,7.3965356E-2,-1.8525915E-2,-2.7171254E-2,-1.274376E-1,-1.4122094E-1,2.4642764E-1,-1.3136947E-1,-7.951681E-2,-1.600509E-1,5.1149003E-2,-1.04307234E-1,-1.6599108E-1,-7.374936E-2,6.124335E-3,-6.295422E-2,4.9446392E-1,-1.6898951E-1,1.861181E-2,-1.2779059E-1,3.4925465E-2,-3.9844826E-2,5.2030176E-1,-2.3475388E-1,-4.4177253E-2,-1.905834E-1,5.1465258E-2,-2.0013703E-1,-1.3503435E-1,-2.4493973E-1,-8.6717315E-2,-2.1354303E-1,1.8738914E-1,6.2124785E-2,-1.2125274E-1,-9.836197E-3,2.4566601E-1,1.5700327E-1,-7.925387E-2,-1.9638489E-1,2.1128584E-1,-1.8459842E-1,-1.0019815E-1,-1.7508659E-1,4.5847144E-2,-2.2676583E-1,-1.0326817E-1,-2.4621765E-1,-2.1145952E-1,-2.3961101E-1,-2.6934123E-1,-1.942642E-1,-2.4990049E-1,1.9387016E-2,-1.6177802E-1,-1.9253717E-1,-1.3803872E-1,-2.2405945E-1,-2.8705874E-1,-7.673688E-2,-1.976887E-1],"split_indices":[12,25,25,25,12,25,22,8,10,6,6,22,8,17,15,6,21,12,24,12,11,17,8,11,25,6,12,12,16,12,23,17,25,12,11,6,13,12,3,22,14,17,12,15,22,11,21,23,27,11,21,13,3,27,7,10,18,8,18,6,12,0,12,0,0,0,0,0,0,0,0,0,0,0,0,0,0,0,0,0,0,0,0,0,0,0,0,0,0,0,0,0,0,0,0,0,0,0,0,0,0,0,0,0,0,0,0,0,0,0,0,0,0,0,0,0,0,0,0,0,0,0,0,0,0],"split_type":[0,0,0,0,0,0,0,0,0,0,0,0,0,0,0,0,0,0,0,0,0,0,0,0,0,0,0,0,0,0,0,0,0,0,0,0,0,0,0,0,0,0,0,0,0,0,0,0,0,0,0,0,0,0,0,0,0,0,0,0,0,0,0,0,0,0,0,0,0,0,0,0,0,0,0,0,0,0,0,0,0,0,0,0,0,0,0,0,0,0,0,0,0,0,0,0,0,0,0,0,0,0,0,0,0,0,0,0,0,0,0,0,0,0,0,0,0,0,0,0,0,0,0,0,0],"sum_hessian":[3.585256E4,1.9270715E4,1.6581842E4,1.4541797E4,4.728918E3,5.0646475E3,1.1517194E4,2.8761067E3,1.166569E4,1.3631395E3,3.365778E3,8.712091E2,4.1934385E3,8.648413E3,2.8687812E3,2.2973066E3,5.787999E2,4.8923965E3,6.773294E3,8.083014E2,5.548382E2,1.3060747E3,2.0597036E3,1.8709155E2,6.8411755E2,3.0010535E3,1.1923848E3,6.854758E3,1.7936558E3,2.4484531E3,4.2032806E2,4.558353E2,1.8414714E3,5.682836E2,1.0516282E1,2.092704E3,2.7996924E3,2.4078054E3,4.365489E3,1.2382799E1,7.959186E2,4.2186816E2,1.3297E2,1.1047618E3,2.0131287E2,1.6056903E3,4.540132E2,1.19196266E2,6.789528E1,1.229148E2,5.6120276E2,6.743424E2,2.3267112E3,6.4791943E2,5.4446533E2,4.666495E3,2.1882627E3,1.574618E3,2.1903767E2,1.6481396E3,8.0031354E2,1.787863E0,4.185402E2,4.389011E2,1.6934198E1,2.6853357E2,1.5729379E3,1.0200476E2,4.6627887E2,1.5483847E0,8.967897E0,1.0554972E3,1.0372068E3,2.7547212E3,4.4971046E1,1.3791633E3,1.0286422E3,3.3549155E3,1.010573E3,1.0163909E1,2.2188897E0,7.781191E2,1.7799505E1,3.9336395E2,2.8504217E1,1.2977055E2,3.1994467E0,1.0954015E3,9.360271E0,1.8760892E2,1.3703947E1,6.201367E2,9.855536E2,4.2001233E2,3.4000904E1,1.15275566E2,3.920702E0,2.2542831E1,4.535245E1,1.0697405E2,1.5940751E1,1.7218819E1,5.4398395E2,6.707853E2,3.5571275E0,3.631477E2,1.9635634E3,6.292815E2,1.8637964E1,5.0520328E2,3.9262028E1,2.3573174E3,2.3091775E3,7.4868744E2,1.4395753E3,1.1884843E3,3.8613382E2,4.104664E1,1.7799104E2,8.916794E2,7.564602E2,5.9871423E2,2.0159932E2,3.5699448E2,6.1545727E1],"tree_param":{"num_deleted":"0","num_feature":"30","num_nodes":"125","size_leaf_vector":"0"}},{"base_weights":[-4.0102816E-1,-3.1595704E-1,-5.878211E-1,-2.4472658E-1,-4.974499E-1,-4.000185E-1,-6.595727E-1,-2.0178345E-1,-4.2896718E-1,-3.2566652E-1,-5.646404E-1,-1.03315145E-1,-4.3117493E-1,-5.911174E-1,-7.3518E-1,-4.130293E-1,-1.5711012E-1,-2.7857766E-1,-5.0833994E-1,-3.824137E-1,-1.4398743E-1,-6.014981E-1,-3.397969E-1,4.108887E-1,-1.525652E-1,-5.2958953E-1,-3.4487304E-1,-7.299661E-1,-5.464164E-1,-7.6007813E-1,-6.017194E-1,-4.9582723E-1,-2.80788E-1,-3.240191E-1,-9.963108E-2,1.0251409E0,-2.8562525E-1,-3.0084068E-1,-5.532586E-1,-4.0655702E-1,-3.2198165E-2,4.5273265E-1,-1.9437562E-1,-7.032222E-1,-5.426066E-1,-4.5602587E-1,-1.22812614E-1,-1.842459E-1,8.705607E-1,-3.0427143E-1,8.5830614E-2,-5.332957E-1,1.7318441E0,-4.82898E-1,-2.3625536E-1,-6.4041346E-1,-8.172207E-1,-6.9330597E-1,-4.7179168E-1,-7.127884E-1,-8.082022E-1,-7.0566136E-1,-4.3608904E-1,-5.923534E-1,-3.853961E-1,5.0556433E-1,-3.1597406E-1,-3.8739613E-1,-1.0363505E-1,-1.5524983E-1,3.1902593E-2,1.8810518E0,-4.7274065E-1,-4.356328E-1,-2.2205605E-1,-3.886616E-1,1.5492772E-1,-6.205371E-1,-4.4151333E-1,-5.086124E-1,-3.1278774E-1,-1.9789158E-1,7.4235934E-1,8.1372106E-1,-3.9829504E-1,-4.040944E-1,-6.753855E-2,-7.0884293E-1,-6.861099E-2,-6.3615775E-1,-4.181062E-1,-4.8778245E-1,2.0946415E-1,-3.873052E-1,8.8353515E-2,8.3910704E-1,-4.382616E-1,-1.9821112E-1,1.338553E0,-3.3809668E-1,1.3770092E0,4.9271684E-2,1.602404E0,-5.642285E-1,-2.9642966E-1,-6.470134E-1,-3.795699E-1,-3.7650803E-1,-9.718125E-2,-8.0905163E-1,-5.763527E-1,-1.0191566E0,-7.6152134E-1,1.2195017E0,-6.969355E-1,-4.1666493E-1,-6.4800704E-1,-7.1658635E-1,6.1485165E-1,-8.714249E-1,-7.729161E-1,-7.3253375E-1,-1.8550676E-1,-2.684251E-1,-6.2554973E-1],"categories":[],"categories_nodes":[],"categories_segments":[],"categories_sizes":[],"default_left":[1,1,1,1,1,1,1,1,1,1,1,1,1,1,1,1,1,1,1,1,1,1,1,1,1,1,1,1,1,1,1,1,1,1,1,1,1,1,1,1,1,1,1,1,1,1,1,1,1,1,1,1,0,1,1,1,1,1,1,1,1,1,1,0,0,0,0,0,0,0,0,0,0,0,0,0,0,0,0,0,0,0,0,0,0,0,0,0,0,0,0,0,0,0,0,0,0,0,0,0,0,0,0,0,0,0,0,0,0,0,0,0,0,0,0,0,0,0,0,0,0,0,0,0,0],"id":7,"left_children":[1,3,5,7,9,11,13,15,17,19,21,23,25,27,29,31,33,35,37,39,41,43,45,47,49,51,53,55,57,59,61,63,65,67,69,71,73,75,77,79,81,83,85,87,89,91,93,95,97,99,101,103,-1,105,107,109,111,113,115,117,119,121,123,-1,-1,-1,-1,-1,-1,-1,-1,-1,-1,-1,-1,-1,-1,-1,-1,-1,-1,-1,-1,-1,-1,-1,-1,-1,-1,-1,-1,-1,-1,-1,-1,-1,-1,-1,-1,-1,-1,-1,-1,-1,-1,-1,-1,-1,-1,-1,-1,-1,-1,-1,-1,-1,-1,-1,-1,-1,-1,-1,-1,-1,-1],"loss_changes":[5.0963086E2,2.8488013E2,1.3500073E2,1.2519E2,7.152356E1,2.5631165E1,3.7149414E1,1.2113422E2,3.5574768E1,1.7977982E1,3.6794067E1,6.780256E0,2.1163147E1,2.3286865E1,1.0994995E1,2.4400848E1,1.0168707E2,9.810333E0,1.8076416E1,1.12512665E1,1.2653492E1,2.2589355E1,1.58596115E1,6.577279E0,8.807346E0,1.0749359E1,2.0003372E1,6.7153625E0,3.136029E1,6.0253906E0,9.103729E0,1.4449585E1,2.4100487E1,3.7888336E1,5.771241E1,8.3089905E0,9.735397E0,1.4089058E1,1.1813263E1,1.1766708E1,1.1312885E1,1.0413361E1,1.0242106E1,4.9542236E0,2.8070007E1,8.779228E0,1.2405153E1,3.2394764E0,6.97221E0,8.916373E0,5.1995177E0,8.413971E0,0E0,9.759262E0,1.464904E1,4.5225677E0,4.4607544E0,7.596222E0,1.8381592E1,7.8605957E0,2.5170898E0,4.5364227E0,6.6110115E0,0E0,0E0,0E0,0E0,0E0,0E0,0E0,0E0,0E0,0E0,0E0,0E0,0E0,0E0,0E0,0E0,0E0,0E0,0E0,0E0,0E0,0E0,0E0,0E0,0E0,0E0,0E0,0E0,0E0,0E0,0E0,0E0,0E0,0E0,0E0,0E0,0E0,0E0,0E0,0E0,0E0,0E0,0E0,0E0,0E0,0E0,0E0,0E0,0E0,0E0,0E0,0E0,0E0,0E0,0E0,0E0,0E0,0E0,0E0,0E0,0E0,0E0],"parents":[2147483647,0,0,1,1,2,2,3,3,4,4,5,5,6,6,7,7,8,8,9,9,10,10,11,11,12,12,13,13,14,14,15,15,16,16,17,17,18,18,19,19,20,20,21,21,22,22,23,23,24,24,25,25,26,26,27,27,28,28,29,29,30,30,31,31,32,32,33,33,34,34,35,35,36,36,37,37,38,38,39,39,40,40,41,41,42,42,43,43,44,44,45,45,46,46,47,47,48,48,49,49,50,50,51,51,53,53,54,54,55,55,56,56,57,57,58,58,59,59,60,60,61,61,62,62],"right_children":[2,4,6,8,10,12,14,16,18,20,22,24,26,28,30,32,34,36,38,40,42,44,46,48,50,52,54,56,58,60,62,64,66,68,70,72,74,76,78,80,82,84,86,88,90,92,94,96,98,100,102,104,-1,106,108,110,112,114,116,118,120,122,124,-1,-1,-1,-1,-1,-1,-1,-1,-1,-1,-1,-1,-1,-1,-1,-1,-1,-1,-1,-1,-1,-1,-1,-1,-1,-1,-1,-1,-1,-1,-1,-1,-1,-1,-1,-1,-1,-1,-1,-1,-1,-1,-1,-1,-1,-1,-1,-1,-1,-1,-1,-1,-1,-1,-1,-1,-1,-1,-1,-1,-1,-1],"split_conditions":[5.361731E-1,6.1237144E-1,3.9506483E-1,5E-1,3.146944E-1,6.854451E-2,6.249431E-1,-2.00325E4,3.100468E-1,1.720629E-1,2.2902098E-1,-1.917E3,5E-1,-3.0735E3,1.2916666E-1,4.31677E-1,-2.3495E3,-1.5679644E3,2.0520642E-1,-2.95E1,6.2065876E-1,-2.0115E3,4.7493735E-1,5E-1,-1.341E3,3.947513E-1,-7.485E2,6.6825724E-1,-1.8985E4,6.897546E-1,-1.0968472E3,-7.86E2,4.6451814E-2,2.7888888E-1,2.1240601E-1,-4.68E2,-2.0045E3,2.0526317E-1,2.8801844E-1,5E-1,-4.3741666E2,-1.6106667E2,-2.355E2,-9.8E1,5E-1,8.012821E-2,-3.0785E3,3.6666667E-1,-2.3716665E3,7.386364E-1,-3.065E2,1.952381E-1,5.1955324E-1,-7.3121594E2,-1.4435E3,5E-1,-2.7355E3,-3.057E3,5E-1,8.116883E-2,5E-1,5.231579E-1,6.3720983E-1,-1.7770603E-1,-1.1561883E-1,1.5166931E-1,-9.4792224E-2,-1.1621884E-1,-3.1090517E-2,-4.657495E-2,9.570778E-3,5.6431556E-1,-1.418222E-1,-1.3068984E-1,-6.661682E-2,-1.1659848E-1,4.6478316E-2,-1.8616113E-1,-1.3245401E-1,-1.5258372E-1,-9.383633E-2,-5.9367474E-2,2.2270781E-1,2.4411632E-1,-1.19488515E-1,-1.2122832E-1,-2.0261567E-2,-2.1265289E-1,-2.0583298E-2,-1.9084734E-1,-1.2543187E-1,-1.4633474E-1,6.283925E-2,-1.16191566E-1,2.6506055E-2,2.517321E-1,-1.3147849E-1,-5.9463337E-2,4.015659E-1,-1.0142901E-1,4.1310278E-1,1.4781506E-2,4.807212E-1,-1.6926855E-1,-8.89289E-2,-1.9410403E-1,-1.1387097E-1,-1.1295241E-1,-2.9154377E-2,-2.427155E-1,-1.7290582E-1,-3.0574697E-1,-2.2845641E-1,3.6585054E-1,-2.0908065E-1,-1.24999486E-1,-1.9440211E-1,-2.1497591E-1,1.844555E-1,-2.614275E-1,-2.3187484E-1,-2.1976013E-1,-5.565203E-2,-8.052754E-2,-1.8766493E-1],"split_indices":[25,12,12,8,25,12,12,6,25,17,17,27,10,24,17,19,24,23,12,21,12,24,16,10,20,12,11,25,6,12,22,20,12,15,15,11,24,17,16,10,28,23,21,27,10,13,7,18,22,16,26,17,0,23,24,0,26,24,8,13,0,15,25,0,0,0,0,0,0,0,0,0,0,0,0,0,0,0,0,0,0,0,0,0,0,0,0,0,0,0,0,0,0,0,0,0,0,0,0,0,0,0,0,0,0,0,0,0,0,0,0,0,0,0,0,0,0,0,0,0,0,0,0,0,0],"split_type":[0,0,0,0,0,0,0,0,0,0,0,0,0,0,0,0,0,0,0,0,0,0,0,0,0,0,0,0,0,0,0,0,0,0,0,0,0,0,0,0,0,0,0,0,0,0,0,0,0,0,0,0,0,0,0,0,0,0,0,0,0,0,0,0,0,0,0,0,0,0,0,0,0,0,0,0,0,0,0,0,0,0,0,0,0,0,0,0,0,0,0,0,0,0,0,0,0,0,0,0,0,0,0,0,0,0,0,0,0,0,0,0,0,0,0,0,0,0,0,0,0,0,0,0,0],"sum_hessian":[3.2081734E4,2.2044639E4,1.0037097E4,1.583301E4,6.211628E3,2.7764885E3,7.260608E3,1.2841893E4,2.9911172E3,1.748121E3,4.4635073E3,2.6425897E2,2.5122295E3,3.8151582E3,3.4454495E3,2.2402449E3,1.0601648E4,1.0348573E3,1.95626E3,1.3312136E3,4.169074E2,3.8334324E3,6.3007477E2,2.245637E1,2.4180261E2,1.1713457E3,1.3408838E3,9.2539624E2,2.889762E3,2.899778E3,5.4567126E2,1.3759781E3,8.642666E2,2.7145217E3,7.887126E3,4.7873898E0,1.0300698E3,3.4949335E2,1.6067666E3,1.2452098E3,8.600372E1,3.184145E1,3.8506595E2,1.4015598E3,2.4318726E3,4.0957938E2,2.204954E2,1.004733E1,1.24090395E1,1.4759947E2,9.420314E1,1.1701921E3,1.1536096E0,5.8898737E2,7.5189636E2,4.6079974E2,4.645965E2,9.707229E2,1.9190391E3,1.4705415E3,1.4292367E3,3.332675E2,2.1240378E2,7.318849E2,6.440933E2,3.6443512E1,8.278231E2,2.1076543E3,6.0686743E2,5.54307E3,2.3440564E3,2.8837602E0,1.9036297E0,3.0484897E2,7.252209E2,2.9315353E2,5.63398E1,1.00008936E3,6.066773E2,5.941416E2,6.510683E2,7.146124E1,1.4542485E1,2.2388533E1,9.452918E0,1.4429517E2,2.407708E2,1.3891393E3,1.2420471E1,1.3861741E3,1.0456985E3,3.911797E2,1.83997E1,9.751745E1,1.2297796E2,1.5399532E0,8.507377E0,3.9544885E0,8.454552E0,1.4547166E2,2.1278012E0,9.29939E1,1.209247E0,1.0338038E3,1.3638828E2,2.2552527E2,3.6346213E2,3.7351196E2,3.7838443E2,1.23654045E2,3.371457E2,9.670359E1,3.678929E2,1.204014E0,9.6951886E2,1.464312E3,4.5472705E2,1.4668057E3,3.735819E0,5.0346802E2,9.257687E2,3.165077E2,1.67598E1,1.1396597E2,9.843781E1],"tree_param":{"num_deleted":"0","num_feature":"30","num_nodes":"125","size_leaf_vector":"0"}},{"base_weights":[-3.1651372E-1,-2.1769232E-1,-4.4989702E-1,-1.7423598E-1,-4.342942E-1,-2.6563442E-1,-5.3227276E-1,1.3260302E-2,-2.0760146E-1,-2.9168302E-1,-4.9122182E-1,-3.9479053E-1,-2.024399E-1,-4.2579898E-1,-5.9947896E-1,-3.267217E-1,4.707218E-2,-1.15897484E-1,-2.7017874E-1,-2.299897E-1,-4.625456E-1,-5.717032E-1,-3.936287E-1,-4.3944612E-1,-1.6588621E-1,-2.6713932E-1,-3.5775084E-2,-3.7690184E-1,-6.4868873E-1,-6.439377E-1,-4.7395456E-1,-3.6280924E-1,8.105874E-1,9.201199E-2,-1.961564E-1,-1.7234284E-1,1.7464286E-2,-3.4339726E-1,-1.5772995E-1,-3.2946122E-1,-8.232864E-2,-3.0884394E-1,-6.848203E-1,-6.193248E-1,-3.8681054E-1,-3.3373454E-1,-6.1216396E-1,1.1364695E-2,-4.6146166E-1,-2.2105838E-1,7.878536E-1,-1.9760148E-1,-4.7341856E-1,-9.383617E-2,6.15188E-1,-5.4465073E-1,-3.209079E-1,-6.7979056E-1,-1.158289E-1,-7.063008E-1,-5.7905656E-1,-4.8855254E-1,3.2146505E-1,5.4485965E-1,-4.0476534E-1,-4.5714837E-1,1.3873827E0,-3.9129786E-2,2.0620658E-1,-5.351179E-1,-6.399065E-2,-3.07967E-1,-1.2460575E-1,-1.09536834E-1,1.0150256E-1,-3.9302602E-1,-2.0566404E-1,-3.070658E-1,-7.9694346E-2,-2.8593865E-1,-7.6492465E-1,-4.110612E-1,4.1630123E-2,6.2381722E-2,-4.3303522E-1,-7.146897E-1,8.7801826E-1,-6.329176E-1,6.229123E-1,4.9990814E-2,-4.6702063E-1,-5.221116E-1,-2.4234872E-1,-6.303495E-1,1.4222559E0,-1.02125585E-1,1.3337984E0,-6.609101E-1,-4.1961512E-1,1.0993481E-1,-3.7978655E-1,-2.8046316E-1,1.2441266E0,-1.3103081E-1,-3.81123E-1,-5.270894E-1,4.1350883E-2,-4.3017498E-1,-2.4095958E-2,9.4656605E-1,1.657767E-1,-6.006851E-1,-2.8284684E-1,-5.0208205E-1,-2.5591427E-1,-7.2329926E-1,-4.14883E-1,-6.4336413E-1,2.300992E-1,-7.140854E-1,-2.5738615E-1,-6.683258E-1,-4.2933276E-1,-5.5320555E-1,-3.366362E-1,7.47919E-1,-7.03844E-1],"categories":[],"categories_nodes":[],"categories_segments":[],"categories_sizes":[],"default_left":[1,1,1,1,1,1,1,1,1,1,1,1,1,1,1,1,1,1,1,1,1,1,1,1,1,1,1,1,1,1,1,1,1,1,1,1,1,1,1,1,1,1,1,1,1,1,1,1,1,1,1,1,1,1,1,1,1,1,1,1,1,1,1,0,0,0,0,0,0,0,0,0,0,0,0,0,0,0,0,0,0,0,0,0,0,0,0,0,0,0,0,0,0,0,0,0,0,0,0,0,0,0,0,0,0,0,0,0,0,0,0,0,0,0,0,0,0,0,0,0,0,0,0,0,0,0,0],"id":8,"left_children":[1,3,5,7,9,11,13,15,17,19,21,23,25,27,29,31,33,35,37,39,41,43,45,47,49,51,53,55,57,59,61,63,65,67,69,71,73,75,77,79,81,83,85,87,89,91,93,95,97,99,101,103,105,107,109,111,113,115,117,119,121,123,125,-1,-1,-1,-1,-1,-1,-1,-1,-1,-1,-1,-1,-1,-1,-1,-1,-1,-1,-1,-1,-1,-1,-1,-1,-1,-1,-1,-1,-1,-1,-1,-1,-1,-1,-1,-1,-1,-1,-1,-1,-1,-1,-1,-1,-1,-1,-1,-1,-1,-1,-1,-1,-1,-1,-1,-1,-1,-1,-1,-1,-1,-1,-1,-1],"loss_changes":[3.8547168E2,1.5810236E2,1.8880298E2,8.7574554E1,2.2648926E1,3.1324738E1,6.1292725E1,2.43357E1,6.816388E1,8.362442E0,1.5523254E1,1.2837921E1,2.787156E1,3.606714E1,2.9107788E1,8.153723E0,2.1061203E1,3.6299904E1,5.8096313E1,8.672159E0,7.0361557E0,9.416199E0,1.1698654E1,1.0488586E1,1.1107874E1,2.6621414E1,2.7429604E1,2.5512238E1,9.832306E0,1.5327515E1,1.6207458E1,7.315281E0,5.166882E0,2.435262E1,1.3429965E1,2.1896423E1,1.5325E1,2.9152771E1,3.245495E1,6.4818497E0,9.7856455E0,5.893117E0,4.6376038E0,1.509082E1,7.9858513E0,1.2198784E1,8.0896225E0,7.6640472E0,8.128311E0,1.0402483E1,5.994452E0,1.6987988E1,1.2974663E1,1.560618E1,8.694706E0,9.849091E0,2.4043106E1,6.210144E0,6.3865905E0,6.7304688E0,2.526416E1,1.3149536E1,1.1682486E1,0E0,0E0,0E0,0E0,0E0,0E0,0E0,0E0,0E0,0E0,0E0,0E0,0E0,0E0,0E0,0E0,0E0,0E0,0E0,0E0,0E0,0E0,0E0,0E0,0E0,0E0,0E0,0E0,0E0,0E0,0E0,0E0,0E0,0E0,0E0,0E0,0E0,0E0,0E0,0E0,0E0,0E0,0E0,0E0,0E0,0E0,0E0,0E0,0E0,0E0,0E0,0E0,0E0,0E0,0E0,0E0,0E0,0E0,0E0,0E0,0E0,0E0,0E0,0E0],"parents":[2147483647,0,0,1,1,2,2,3,3,4,4,5,5,6,6,7,7,8,8,9,9,10,10,11,11,12,12,13,13,14,14,15,15,16,16,17,17,18,18,19,19,20,20,21,21,22,22,23,23,24,24,25,25,26,26,27,27,28,28,29,29,30,30,31,31,32,32,33,33,34,34,35,35,36,36,37,37,38,38,39,39,40,40,41,41,42,42,43,43,44,44,45,45,46,46,47,47,48,48,49,49,50,50,51,51,52,52,53,53,54,54,55,55,56,56,57,57,58,58,59,59,60,60,61,61,62,62],"right_children":[2,4,6,8,10,12,14,16,18,20,22,24,26,28,30,32,34,36,38,40,42,44,46,48,50,52,54,56,58,60,62,64,66,68,70,72,74,76,78,80,82,84,86,88,90,92,94,96,98,100,102,104,106,108,110,112,114,116,118,120,122,124,126,-1,-1,-1,-1,-1,-1,-1,-1,-1,-1,-1,-1,-1,-1,-1,-1,-1,-1,-1,-1,-1,-1,-1,-1,-1,-1,-1,-1,-1,-1,-1,-1,-1,-1,-1,-1,-1,-1,-1,-1,-1,-1,-1,-1,-1,-1,-1,-1,-1,-1,-1,-1,-1,-1,-1,-1,-1,-1,-1,-1,-1,-1,-1,-1],"split_conditions":[5.5186224E-1,6.220741E-1,4.1272265E-1,1.2614875E-1,2.4779716E-1,3.9642859E-1,4.7213623E-1,-3.6395E3,4.0227455E-1,-1.485E2,-1.55365E4,-1.2105E3,2.546296E-1,7.17732E-1,1.2973352E-1,-1.3375E2,-9.488E3,4.2206478E-1,-5.35E1,-1.3135E3,-2.16185E4,-1.4185E3,5E-1,-1.312E3,-4.05E1,6.946211E-1,-2.365E2,-4.2345E3,2.5E0,5E-1,-1.115E2,4.667883E-3,-1.935E2,-1.0785E3,5E-1,5E-1,7.549858E-2,5E-1,-7.635E2,-3.54125E2,-9.475E2,-1.295E3,-1.53E2,-5.85E1,-1.1786667E3,-2.2825E3,-4.05E1,-3.65E2,-4.1005E3,-4.705E2,5E-1,5E-1,6.220238E-1,1.5E0,2.9705882E-1,1.3809524E-1,-2.4505E3,2.4038461E-1,-1.7485E3,6.333333E-1,-1.4105E3,3.5504204E-1,8.5164833E-1,1.634579E-1,-1.2142961E-1,-1.3714452E-1,4.1621485E-1,-1.1738936E-2,6.1861973E-2,-1.6053538E-1,-1.9197196E-2,-9.2390105E-2,-3.7381727E-2,-3.286105E-2,3.0450769E-2,-1.17907815E-1,-6.1699215E-2,-9.2119746E-2,-2.3908304E-2,-8.57816E-2,-2.294774E-1,-1.2331837E-1,1.2489038E-2,1.8714517E-2,-1.2991057E-1,-2.1440691E-1,2.634055E-1,-1.8987529E-1,1.8687369E-1,1.4997245E-2,-1.401062E-1,-1.5663348E-1,-7.270462E-2,-1.8910487E-1,4.2667678E-1,-3.0637676E-2,4.0013954E-1,-1.9827305E-1,-1.2588455E-1,3.2980442E-2,-1.1393597E-1,-8.413895E-2,3.7323797E-1,-3.9309245E-2,-1.1433691E-1,-1.5812683E-1,1.2405265E-2,-1.290525E-1,-7.2287875E-3,2.8396982E-1,4.9733013E-2,-1.8020554E-1,-8.485405E-2,-1.5062462E-1,-7.6774284E-2,-2.1698979E-1,-1.244649E-1,-1.9300924E-1,6.902976E-2,-2.1422563E-1,-7.721585E-2,-2.0049775E-1,-1.2879984E-1,-1.6596167E-1,-1.0099086E-1,2.2437571E-1,-2.1115321E-1],"split_indices":[12,25,25,12,12,19,18,24,25,24,6,26,15,12,15,29,6,16,21,24,6,26,8,21,27,12,27,7,4,10,27,12,21,20,0,0,15,2,11,29,11,27,7,7,28,24,24,7,24,27,10,8,16,3,14,17,24,17,24,17,24,19,18,0,0,0,0,0,0,0,0,0,0,0,0,0,0,0,0,0,0,0,0,0,0,0,0,0,0,0,0,0,0,0,0,0,0,0,0,0,0,0,0,0,0,0,0,0,0,0,0,0,0,0,0,0,0,0,0,0,0,0,0,0,0,0,0],"split_type":[0,0,0,0,0,0,0,0,0,0,0,0,0,0,0,0,0,0,0,0,0,0,0,0,0,0,0,0,0,0,0,0,0,0,0,0,0,0,0,0,0,0,0,0,0,0,0,0,0,0,0,0,0,0,0,0,0,0,0,0,0,0,0,0,0,0,0,0,0,0,0,0,0,0,0,0,0,0,0,0,0,0,0,0,0,0,0,0,0,0,0,0,0,0,0,0,0,0,0,0,0,0,0,0,0,0,0,0,0,0,0,0,0,0,0,0,0,0,0,0,0,0,0,0,0,0,0],"sum_hessian":[2.9250652E4,1.6803705E4,1.2446946E4,1.39972705E4,2.8064353E3,3.846687E3,8.600259E3,2.1146511E3,1.1882619E4,8.0241174E2,2.0040234E3,1.2620594E3,2.5846277E3,3.3307458E3,5.269513E3,1.9049915E2,1.924152E3,4.820809E3,7.0618105E3,5.9126855E2,2.111432E2,1.0956356E3,9.083878E2,1.0552727E3,2.0678665E2,1.8614202E3,7.232076E2,2.7337185E3,5.9702747E2,3.8882324E3,1.3812808E3,1.8530045E2,5.1987047E0,1.6246056E3,2.9954642E2,3.3869785E3,1.4338304E3,4.275718E3,2.7860928E3,3.5254572E2,2.3872282E2,1.2623908E2,8.490412E1,8.693684E2,2.2626721E2,7.149641E2,1.9342368E2,4.9157677E1,1.0061151E3,1.9620477E2,1.0581882E1,1.3935911E3,4.6782907E2,6.647708E2,5.843678E1,6.8195685E2,2.0517617E3,5.638416E2,3.3185863E1,1.977548E3,1.9106844E3,1.3567664E3,2.4514332E1,7.657317E0,1.7764313E2,1.6905302E0,3.5081742E0,7.56497E2,8.681086E2,8.317672E1,2.1636969E2,8.8036176E2,2.5066167E3,5.708467E2,8.629838E2,3.1417957E3,1.133922E3,9.5520087E2,1.8308918E3,3.220181E2,3.0527609E1,6.473437E1,1.7398846E2,3.177042E1,9.4468666E1,8.384436E1,1.0597588E0,8.604438E2,8.924629E0,3.516195E1,1.9110527E2,2.320067E2,4.8295743E2,1.9239403E2,1.0296415E0,4.612227E1,3.0354047E0,1.7191974E2,8.341953E2,6.3693394E1,1.3251138E2,3.2822187E0,7.299664E0,1.0238964E3,3.696946E2,4.2363605E2,4.419304E1,1.13280464E2,5.5149036E2,3.299865E1,2.5438131E1,5.6066284E2,1.2129404E2,5.399339E2,1.5118278E3,4.8281345E2,8.1028175E1,1.2802468E1,2.0383396E1,1.9432592E3,3.428872E1,1.1948309E3,7.1585345E2,9.498745E2,4.0689188E2,1.7504341E1,7.0099897E0],"tree_param":{"num_deleted":"0","num_feature":"30","num_nodes":"127","size_leaf_vector":"0"}},{"base_weights":[-2.4523129E-1,-9.51692E-2,-3.1379306E-1,-1.4489196E-1,4.8134185E-2,-2.467063E-1,-4.756223E-1,-3.0354673E-1,-9.40558E-2,-9.345575E-2,1.37745E-1,-2.0277071E-1,-3.961713E-1,-4.1366708E-1,-5.856976E-1,-3.9029062E-1,-1.0656815E-1,-4.554162E-1,-7.52794E-2,-1.1877292E-1,7.088598E-1,1.8830046E-1,-2.2757655E-1,-3.1875625E-1,-1.3568836E-1,-2.551127E-1,-4.709138E-1,-5.6367236E-1,-3.6802965E-1,-6.0700476E-1,-3.5960388E-1,-2.2878069E-1,-4.4653964E-1,3.8182285E-1,-1.8183763E-1,-6.761937E-1,-2.7050817E-1,-2.2750366E-1,-3.0366488E-2,-2.2716549E-1,3.4498017E-2,-1.6602205E-1,1.0639637E0,-1.8490498E-1,2.2254771E-1,-9.518607E-2,-5.947593E-1,-3.7411568E-1,-2.2688232E-2,-2.3081179E-1,-6.121743E-2,-3.532557E-1,-1.3984035E-1,-4.1064414E-1,-6.046265E-1,-5.868546E-1,-1.2930922E-1,-4.7005376E-1,-2.6903787E-1,-7.0067865E-1,-5.607059E-1,-4.4026768E-1,2.0537989E-1,-2.5604868E-1,6.343398E-1,-7.421573E-1,-4.104497E-1,2.1950284E-1,1.362941E0,-2.4604051E-1,1.4974298E-1,-7.096756E-1,1.3917955E0,-3.0177575E-1,1.0742822E0,-1.6398093E-1,-4.3108E-1,-1.5088974E-1,3.907733E-2,-1.3991278E-1,-4.3863687E-1,7.161927E-1,-5.4732915E-3,-6.7103696E-1,1.7104906E0,1.7885833E0,4.9624178E-1,1.0089148E0,-2.8238353E-1,8.779707E-1,2.0599227E-1,-1.9229516E-1,4.887026E-1,-1.4242846E-4,-8.9333904E-1,-4.4839755E-1,-2.62574E-1,-5.069987E-2,1.058666E0,-2.9676634E-1,-7.071778E-2,4.640207E-1,-7.598975E-2,-1.8886474E-1,-4.4443613E-1,-1.8890937E-1,3.9388728E-1,-5.378629E-1,-3.4959906E-1,-6.6684914E-1,-4.263952E-1,-5.587684E-1,-8.9890045E-1,-2.6187873E-1,1.2458231E0,-5.1474875E-1,-2.7223483E-1,-1.3398786E-1,-3.3832654E-1,-2.3552315E-1,-7.250015E-1,-6.3845515E-1,-4.8836228E-1,-7.511431E-1,-3.3869755E-1,-2.9598765E-2,1.8682728E0],"categories":[],"categories_nodes":[],"categories_segments":[],"categories_sizes":[],"default_left":[1,1,1,1,1,1,1,1,1,1,1,1,1,1,1,1,1,1,1,1,1,1,1,1,1,1,1,1,1,1,1,1,1,1,1,1,1,1,1,1,1,1,1,1,1,1,1,1,1,1,1,1,1,1,1,1,1,1,1,1,1,1,1,0,0,0,0,0,0,0,0,0,0,0,0,0,0,0,0,0,0,0,0,0,0,0,0,0,0,0,0,0,0,0,0,0,0,0,0,0,0,0,0,0,0,0,0,0,0,0,0,0,0,0,0,0,0,0,0,0,0,0,0,0,0,0,0],"id":9,"left_children":[1,3,5,7,9,11,13,15,17,19,21,23,25,27,29,31,33,35,37,39,41,43,45,47,49,51,53,55,57,59,61,63,65,67,69,71,73,75,77,79,81,83,85,87,89,91,93,95,97,99,101,103,105,107,109,111,113,115,117,119,121,123,125,-1,-1,-1,-1,-1,-1,-1,-1,-1,-1,-1,-1,-1,-1,-1,-1,-1,-1,-1,-1,-1,-1,-1,-1,-1,-1,-1,-1,-1,-1,-1,-1,-1,-1,-1,-1,-1,-1,-1,-1,-1,-1,-1,-1,-1,-1,-1,-1,-1,-1,-1,-1,-1,-1,-1,-1,-1,-1,-1,-1,-1,-1,-1,-1],"loss_changes":[2.790415E2,6.0629196E1,2.0200745E2,5.0916687E1,2.7829258E1,8.6362915E1,3.695996E1,2.614119E1,3.2433285E1,1.7356241E1,2.4847057E1,7.9125885E1,3.1397125E1,2.371112E1,9.234375E0,9.559326E0,1.734224E1,9.457947E0,3.1100733E1,1.3716698E1,8.302239E0,1.5126911E1,7.901807E0,6.109088E1,4.5665985E1,1.1688599E1,1.5489197E1,8.111969E0,2.6958008E1,7.3779297E0,7.903822E0,6.67605E0,8.099472E0,9.744635E0,8.718288E0,8.394531E0,5.7983284E0,1.3332447E1,2.942127E1,8.8595085E0,9.341586E0,9.123408E0,6.8212013E0,1.1893358E1,1.1554852E1,6.9842525E0,7.668747E0,2.5903076E1,1.7873474E1,2.9873627E1,2.8108816E1,8.306419E0,1.2613731E1,1.0290039E1,6.420929E0,6.26062E0,8.070604E0,1.1524567E1,1.2712959E1,6.489197E0,6.460846E0,4.492796E0,8.69128E0,0E0,0E0,0E0,0E0,0E0,0E0,0E0,0E0,0E0,0E0,0E0,0E0,0E0,0E0,0E0,0E0,0E0,0E0,0E0,0E0,0E0,0E0,0E0,0E0,0E0,0E0,0E0,0E0,0E0,0E0,0E0,0E0,0E0,0E0,0E0,0E0,0E0,0E0,0E0,0E0,0E0,0E0,0E0,0E0,0E0,0E0,0E0,0E0,0E0,0E0,0E0,0E0,0E0,0E0,0E0,0E0,0E0,0E0,0E0,0E0,0E0,0E0,0E0,0E0],"parents":[2147483647,0,0,1,1,2,2,3,3,4,4,5,5,6,6,7,7,8,8,9,9,10,10,11,11,12,12,13,13,14,14,15,15,16,16,17,17,18,18,19,19,20,20,21,21,22,22,23,23,24,24,25,25,26,26,27,27,28,28,29,29,30,30,31,31,32,32,33,33,34,34,35,35,36,36,37,37,38,38,39,39,40,40,41,41,42,42,43,43,44,44,45,45,46,46,47,47,48,48,49,49,50,50,51,51,52,52,53,53,54,54,55,55,56,56,57,57,58,58,59,59,60,60,61,61,62,62],"right_children":[2,4,6,8,10,12,14,16,18,20,22,24,26,28,30,32,34,36,38,40,42,44,46,48,50,52,54,56,58,60,62,64,66,68,70,72,74,76,78,80,82,84,86,88,90,92,94,96,98,100,102,104,106,108,110,112,114,116,118,120,122,124,126,-1,-1,-1,-1,-1,-1,-1,-1,-1,-1,-1,-1,-1,-1,-1,-1,-1,-1,-1,-1,-1,-1,-1,-1,-1,-1,-1,-1,-1,-1,-1,-1,-1,-1,-1,-1,-1,-1,-1,-1,-1,-1,-1,-1,-1,-1,-1,-1,-1,-1,-1,-1,-1,-1,-1,-1,-1,-1,-1,-1,-1,-1,-1,-1],"split_conditions":[3.5452992E-1,9.716758E-2,5.4512894E-1,-4.2125E3,-8.351E2,5E-1,6.460163E-1,-1.42615E4,-5.4005E3,7.434211E-1,-9.7495E3,-1.70015E4,3.146944E-1,-3.0685E3,5.5277777E-1,1.374803E-1,2.2445908E-1,-1.0792697E3,5E-1,3.7171054E-1,2.361111E-1,-3.5745E3,2.6832548E-1,2.0643939E-1,-1.4745E3,2.8991598E-1,6.640953E-1,3.798077E-1,5E-1,5E-1,-1.2357E4,-1.265E2,-4.4605E3,-4.25E1,4.6410257E-1,3.5300264E-1,-4.7E1,-4.575E2,-1.64785E4,-5.905E2,-1.4809667E3,-1.549E3,5.4861116E-1,-4.725E2,5.744403E-2,2.3596561E-1,2.650518E-1,4.31677E-1,-4.345E2,2.0526317E-1,7.12939E-2,3.9444447E-1,-5.195E2,-2.0625E3,1.6228071E-1,7.98717E-1,3.875E-1,8.166666E-2,-1.0045E3,-2.2043667E3,-1.7993E4,-2.6375E3,-1.795E2,-7.681461E-2,1.9030195E-1,-2.2264719E-1,-1.2313492E-1,6.5850854E-2,4.0888232E-1,-7.381216E-2,4.4922896E-2,-2.129027E-1,4.1753867E-1,-9.053273E-2,3.2228467E-1,-4.919428E-2,-1.29324E-1,-4.5266923E-2,1.17232E-2,-4.1973837E-2,-1.3159107E-1,2.1485783E-1,-1.6419875E-3,-2.013111E-1,5.131472E-1,5.36575E-1,1.4887254E-1,3.0267447E-1,-8.471506E-2,2.6339123E-1,6.1797682E-2,-5.7688553E-2,1.4661078E-1,-4.2728538E-5,-2.6800174E-1,-1.3451926E-1,-7.87722E-2,-1.5209962E-2,3.175998E-1,-8.902991E-2,-2.1215335E-2,1.3920622E-1,-2.2796927E-2,-5.6659423E-2,-1.3333085E-1,-5.667281E-2,1.18166186E-1,-1.6135888E-1,-1.0487972E-1,-2.0005475E-1,-1.2791857E-1,-1.6763052E-1,-2.6967016E-1,-7.856362E-2,3.7374696E-1,-1.5442464E-1,-8.167045E-2,-4.019636E-2,-1.0149797E-1,-7.065695E-2,-2.1750046E-1,-1.9153656E-1,-1.465087E-1,-2.2534294E-1,-1.0160927E-1,-8.87963E-3,5.6048185E-1],"split_indices":[12,17,25,7,22,8,12,6,24,15,6,6,25,24,16,12,25,22,0,16,14,24,12,17,24,16,12,17,10,0,6,27,24,21,16,12,7,27,6,27,23,20,14,21,25,12,25,19,7,15,25,18,7,24,15,25,14,17,27,22,6,26,11,0,0,0,0,0,0,0,0,0,0,0,0,0,0,0,0,0,0,0,0,0,0,0,0,0,0,0,0,0,0,0,0,0,0,0,0,0,0,0,0,0,0,0,0,0,0,0,0,0,0,0,0,0,0,0,0,0,0,0,0,0,0,0,0],"split_type":[0,0,0,0,0,0,0,0,0,0,0,0,0,0,0,0,0,0,0,0,0,0,0,0,0,0,0,0,0,0,0,0,0,0,0,0,0,0,0,0,0,0,0,0,0,0,0,0,0,0,0,0,0,0,0,0,0,0,0,0,0,0,0,0,0,0,0,0,0,0,0,0,0,0,0,0,0,0,0,0,0,0,0,0,0,0,0,0,0,0,0,0,0,0,0,0,0,0,0,0,0,0,0,0,0,0,0,0,0,0,0,0,0,0,0,0,0,0,0,0,0,0,0,0,0,0,0],"sum_hessian":[2.7123531E4,8.506855E3,1.8616676E4,6.315515E3,2.1913403E3,1.3162605E4,5.4540713E3,1.5313496E3,4.7841655E3,8.493222E2,1.3420181E3,1.0174225E4,2.9883809E3,3.4928818E3,1.9611896E3,1.0624811E3,4.6886856E2,2.3515944E2,4.549006E3,8.241674E2,2.5154745E1,1.1793033E3,1.6271477E2,3.7268096E3,6.4474146E3,1.0365511E3,1.9518298E3,8.1213354E2,2.6807483E3,1.7907444E3,1.7044525E2,2.757569E2,7.867242E2,6.20674E1,4.0680118E2,1.0597267E2,1.2918678E2,1.0354542E3,3.5135518E3,4.8247852E2,3.416889E2,7.416045E0,1.7738699E1,9.875315E1,1.0805502E3,1.2051972E2,4.2195053E1,3.1395132E3,5.872966E2,2.8302156E3,3.617199E3,5.5875885E2,4.7779227E2,1.3482092E3,6.0362054E2,7.706524E2,4.14812E1,1.3183088E3,1.3624395E3,5.876508E2,1.2030935E3,1.4934389E2,2.1101364E1,2.6799368E2,7.7632003E0,8.346735E1,7.032569E2,5.4306458E1,7.7609444E0,3.4102716E2,6.577401E1,1.0493061E2,1.0420574E0,1.2700929E2,2.1774828E0,7.9057385E2,2.4488034E2,1.2839752E3,2.2295764E3,3.4273026E2,1.3974826E2,1.7988283E1,3.2370062E2,6.349613E0,1.0664322E0,6.8478703E0,1.0890829E1,6.748926E0,9.200423E1,2.5339472E1,1.0552107E3,1.03908844E2,1.6610872E1,1.4439498E1,2.7755556E1,1.8826986E3,1.2568146E3,5.733963E2,1.390027E1,2.0038345E3,8.26381E2,9.81188E1,3.5190803E3,2.0044466E2,3.583142E2,4.3815582E2,3.9636417E1,4.3462805E2,9.135812E2,4.4538858E2,1.5823198E2,7.095764E2,6.1075962E1,3.857221E1,2.9089894E0,1.0740393E3,2.4426944E2,4.6298087E2,8.9945856E2,2.973205E1,5.5791876E2,5.7611017E2,6.269834E2,3.520296E1,1.1414093E2,1.9349361E1,1.7520026E0],"tree_param":{"num_deleted":"0","num_feature":"30","num_nodes":"127","size_leaf_vector":"0"}},{"base_weights":[-1.8672118E-1,-1.4602222E-1,-3.7671295E-1,-1.01660006E-1,-2.792852E-1,-2.857266E-1,-4.98031E-1,-1.8748793E-1,-4.356039E-2,-7.571084E-2,-3.1951633E-1,-3.930098E-1,-2.2643512E-1,-5.37953E-1,-3.1576946E-1,-3.46796E-1,-1.5014225E-1,2.4065733E-2,-1.1958085E-1,-1.2517409E-1,1.6846052E-1,-4.9131358E-1,-2.7471584E-1,-2.731839E-1,-4.964003E-1,-2.4284208E-1,5.3140765E-1,-5.6155306E-1,-3.4291697E-1,-4.3326274E-1,1.4212001E-2,-2.267686E-1,-4.377612E-1,-2.0517662E-1,-3.164948E-2,-2.2607211E-2,1.912423E-1,-1.2716202E-1,5.618167E-1,-4.2532602E-1,-7.953875E-2,1.4700907E0,1.3004994E-1,-5.130082E-1,-1.9046555E-1,-4.8724192E-1,-2.366745E-1,-7.087635E-1,-2.2469486E-1,-6.0129285E-1,-3.6669555E-1,-1.5811615E-1,-3.6194167E-1,-3.5207152E-1,8.882265E-1,-5.973527E-1,-4.436445E-1,-4.4508016E-1,1.905036E-2,-4.9963936E-1,6.063854E-2,6.158311E-1,-2.2192153E-1,-2.5282577E-1,7.249826E-1,3.18992E-1,-4.5920536E-1,-2.4106573E-2,-2.3975873E-1,-5.7856012E-2,3.2388532E-1,2.1797996E-2,-2.3012789E-1,6.218679E-2,3.187493E-1,1.0089224E-2,-1.6869847E-1,-8.153951E-2,8.290717E-1,-5.579691E-2,-5.934182E-1,-2.8426802E-1,-3.2053676E-2,-2.2533222E-1,2.289688E0,1.6986775E-1,-8.572539E-1,-4.7668505E-1,-7.737259E-1,6.249117E-1,-2.8048086E-1,-6.259142E-1,-3.717948E-1,-2.7085027E-1,1.1335892E-2,3.4940947E-2,-8.772361E-1,-2.6667354E-1,3.2756546E-1,-6.163581E-1,9.2297846E-1,1.2871823E0,-3.9717755E-1,2.5220218E-1,-2.0404203E-1,-4.4680947E-1,-1.6702142E-1,5.584156E-1,-8.198087E-1,-4.9399605E-1,1.1734954E0,-6.7423093E-1,-5.516444E-1,-4.5919454E-1,1.8678048E0,-4.8832744E-1,8.264657E-1,1.2267784E0,-1.473096E-1,-5.13698E-1,9.5911723E-1,-1.5700422E-1,2.891656E0,1.1051131E0,-2.6137164E-1,-3.1172147E-1,9.7593635E-1],"categories":[],"categories_nodes":[],"categories_segments":[],"categories_sizes":[],"default_left":[1,1,1,1,1,1,1,1,1,1,1,1,1,1,1,1,1,1,1,1,1,1,1,1,1,1,1,1,1,1,1,1,1,1,1,1,1,1,1,1,1,1,1,1,1,1,1,1,1,1,1,1,1,1,1,1,1,1,1,1,1,1,1,0,0,0,0,0,0,0,0,0,0,0,0,0,0,0,0,0,0,0,0,0,0,0,0,0,0,0,0,0,0,0,0,0,0,0,0,0,0,0,0,0,0,0,0,0,0,0,0,0,0,0,0,0,0,0,0,0,0,0,0,0,0,0,0],"id":10,"left_children":[1,3,5,7,9,11,13,15,17,19,21,23,25,27,29,31,33,35,37,39,41,43,45,47,49,51,53,55,57,59,61,63,65,67,69,71,73,75,77,79,81,83,85,87,89,91,93,95,97,99,101,103,105,107,109,111,113,115,117,119,121,123,125,-1,-1,-1,-1,-1,-1,-1,-1,-1,-1,-1,-1,-1,-1,-1,-1,-1,-1,-1,-1,-1,-1,-1,-1,-1,-1,-1,-1,-1,-1,-1,-1,-1,-1,-1,-1,-1,-1,-1,-1,-1,-1,-1,-1,-1,-1,-1,-1,-1,-1,-1,-1,-1,-1,-1,-1,-1,-1,-1,-1,-1,-1,-1,-1],"loss_changes":[1.9749615E2,1.2437219E2,4.9603333E1,7.872357E1,4.3013275E1,1.6307068E1,1.3873627E1,3.786502E1,4.8413177E1,1.0509588E1,3.36333E1,1.1214127E1,2.0800056E1,7.088379E0,1.3545353E1,1.3106888E1,3.3673073E1,3.889461E1,2.2973019E1,9.865616E0,7.144044E0,5.816971E0,2.8037598E1,8.850039E0,6.4536896E0,1.636995E1,1.1517291E1,5.6846924E0,6.4176235E0,8.473755E0,1.3300305E1,1.3167152E1,1.1295044E1,2.207634E1,1.5291316E1,3.5918922E1,1.7882538E1,2.5002258E1,8.486912E0,5.8771706E0,6.101552E0,6.2247677E0,5.791133E0,7.6302795E0,4.7657585E0,8.215858E0,2.5053589E1,5.3260937E0,9.019711E0,6.7612762E0,1.1698183E1,1.8010221E1,1.1106766E1,5.1173787E0,1.0674459E1,3.417328E0,1.2797028E1,7.8387127E0,8.038323E0,5.1510735E0,1.9803709E1,1.1612338E1,7.541164E0,0E0,0E0,0E0,0E0,0E0,0E0,0E0,0E0,0E0,0E0,0E0,0E0,0E0,0E0,0E0,0E0,0E0,0E0,0E0,0E0,0E0,0E0,0E0,0E0,0E0,0E0,0E0,0E0,0E0,0E0,0E0,0E0,0E0,0E0,0E0,0E0,0E0,0E0,0E0,0E0,0E0,0E0,0E0,0E0,0E0,0E0,0E0,0E0,0E0,0E0,0E0,0E0,0E0,0E0,0E0,0E0,0E0,0E0,0E0,0E0,0E0,0E0,0E0,0E0],"parents":[2147483647,0,0,1,1,2,2,3,3,4,4,5,5,6,6,7,7,8,8,9,9,10,10,11,11,12,12,13,13,14,14,15,15,16,16,17,17,18,18,19,19,20,20,21,21,22,22,23,23,24,24,25,25,26,26,27,27,28,28,29,29,30,30,31,31,32,32,33,33,34,34,35,35,36,36,37,37,38,38,39,39,40,40,41,41,42,42,43,43,44,44,45,45,46,46,47,47,48,48,49,49,50,50,51,51,52,52,53,53,54,54,55,55,56,56,57,57,58,58,59,59,60,60,61,61,62,62],"right_children":[2,4,6,8,10,12,14,16,18,20,22,24,26,28,30,32,34,36,38,40,42,44,46,48,50,52,54,56,58,60,62,64,66,68,70,72,74,76,78,80,82,84,86,88,90,92,94,96,98,100,102,104,106,108,110,112,114,116,118,120,122,124,126,-1,-1,-1,-1,-1,-1,-1,-1,-1,-1,-1,-1,-1,-1,-1,-1,-1,-1,-1,-1,-1,-1,-1,-1,-1,-1,-1,-1,-1,-1,-1,-1,-1,-1,-1,-1,-1,-1,-1,-1,-1,-1,-1,-1,-1,-1,-1,-1,-1,-1,-1,-1,-1,-1,-1,-1,-1,-1,-1,-1,-1,-1,-1,-1],"split_conditions":[6.220741E-1,6.160815E-1,5.7696855E-1,5E-1,2.3466285E-1,-4.1535E3,5E-1,-4.4345E3,4.78836E-1,5.086207E-1,1.5E0,-8.965E2,-2.35E1,1.5849282E-1,-8.205E2,4.462874E-1,3.514706E-1,2.5E0,-1.4041666E2,-1.3878374E3,5.3137255E-1,-5E-1,-3.905E3,-2.8415E3,-1.5406E4,7.1730155E-1,-2.286E3,-1.39975E4,-9.3718256E2,1.3809524E-1,-1.050825E3,-1.45E1,3.4750856E-2,2.2195798E-1,-3.845E2,-9.7825E3,-1.2895E4,-9.955E2,-7.05E1,6.5090895E-1,-1.91675E4,-1.4405E3,-9.2565E3,-2.655E2,-2.7575E3,3.2738096E-1,2.9289216E-1,-2.8084585E3,-1.115E2,7.9285717E-1,-1.53565E4,-1.1435E3,-1.7485E3,-3.1475E3,-7.845E2,-4.2215E3,-8.65E1,-6.85E1,-7.9875E2,8.6121726E-1,-6.1E1,6.713846E-1,-3.785E2,-7.584773E-2,2.174948E-1,9.5697604E-2,-1.3776161E-1,-7.231972E-3,-7.192762E-2,-1.7356804E-2,9.71656E-2,6.5393993E-3,-6.903837E-2,1.8656038E-2,9.56248E-2,3.0267674E-3,-5.0609544E-2,-2.4461854E-2,2.4872153E-1,-1.6739074E-2,-1.7802545E-1,-8.528041E-2,-9.616103E-3,-6.759967E-2,6.8690646E-1,5.096033E-2,-2.571762E-1,-1.4300552E-1,-2.3211779E-1,1.8747352E-1,-8.4144264E-2,-1.8777427E-1,-1.1153844E-1,-8.1255086E-2,3.4007677E-3,1.0482284E-2,-2.6317084E-1,-8.000206E-2,9.826964E-2,-1.8490744E-1,2.7689356E-1,3.861547E-1,-1.1915327E-1,7.566066E-2,-6.121261E-2,-1.3404284E-1,-5.010643E-2,1.6752468E-1,-2.4594262E-1,-1.4819883E-1,3.5204864E-1,-2.0226929E-1,-1.6549332E-1,-1.3775837E-1,5.603415E-1,-1.4649823E-1,2.4793972E-1,3.6803353E-1,-4.419288E-2,-1.541094E-1,2.877352E-1,-4.710127E-2,8.674968E-1,3.3153397E-1,-7.84115E-2,-9.351645E-2,2.927809E-1],"split_indices":[25,12,12,10,25,7,2,7,18,16,3,27,21,14,24,25,16,3,22,22,16,11,24,26,6,25,24,6,22,14,29,21,12,25,7,6,6,27,21,12,6,11,6,11,26,19,17,28,21,16,6,21,26,7,27,7,7,21,29,25,21,12,22,0,0,0,0,0,0,0,0,0,0,0,0,0,0,0,0,0,0,0,0,0,0,0,0,0,0,0,0,0,0,0,0,0,0,0,0,0,0,0,0,0,0,0,0,0,0,0,0,0,0,0,0,0,0,0,0,0,0,0,0,0,0,0,0],"split_type":[0,0,0,0,0,0,0,0,0,0,0,0,0,0,0,0,0,0,0,0,0,0,0,0,0,0,0,0,0,0,0,0,0,0,0,0,0,0,0,0,0,0,0,0,0,0,0,0,0,0,0,0,0,0,0,0,0,0,0,0,0,0,0,0,0,0,0,0,0,0,0,0,0,0,0,0,0,0,0,0,0,0,0,0,0,0,0,0,0,0,0,0,0,0,0,0,0,0,0,0,0,0,0,0,0,0,0,0,0,0,0,0,0,0,0,0,0,0,0,0,0,0,0,0,0,0,0],"sum_hessian":[2.554727E4,2.1041621E4,4.505648E3,1.578776E4,5.2538613E3,2.5765999E3,1.9290482E3,6.3721885E3,9.415571E3,8.674326E2,4.3864287E3,9.151253E2,1.6614746E3,1.5808353E3,3.4821292E2,1.2085414E3,5.163647E3,4.9832583E3,4.432313E3,7.217174E2,1.4571524E2,9.052155E2,3.4812131E3,4.2555936E2,4.8956595E2,1.6269319E3,3.4542755E1,1.4085203E3,1.7231506E2,2.5655197E2,9.1660934E1,5.22544E2,6.8599744E2,3.5254895E3,1.6381573E3,3.8963315E3,1.0869268E3,4.3843467E3,4.7966503E1,9.415072E1,6.2756665E2,3.108358E0,1.4260687E2,8.436718E2,6.1543667E1,5.2672784E2,2.954485E3,4.126418E1,3.8429517E2,2.686623E2,2.2090367E2,9.52011E2,6.749209E2,9.941364E0,2.460139E1,1.0773477E3,3.3117267E2,1.3420645E2,3.8108612E1,2.261478E2,3.0404192E1,2.5382818E1,6.6278114E1,5.0933377E2,1.3210246E1,1.8521132E1,6.6747626E2,5.6562177E2,2.9598677E3,1.5264777E3,1.11679665E2,3.2102898E3,6.860418E2,5.4092255E2,5.460042E2,1.01875934E3,3.3655872E3,1.4281621E1,3.368488E1,2.9853516E1,6.42972E1,1.1721486E2,5.103518E2,1.2492412E0,1.8591168E0,1.3787437E2,4.7325044E0,7.429873E2,1.0068449E2,5.5279617E0,5.6015705E1,2.3728508E2,2.8944278E2,2.5965845E3,3.579007E2,7.7675886E0,3.349659E1,3.5762808E2,2.6667076E1,2.6662274E2,2.039549E0,3.2516136E0,2.1765205E2,9.537804E1,8.5663293E2,4.6929755E2,2.0562335E2,3.3080735E0,6.633291E0,4.0835495E0,2.0517841E1,3.965786E2,6.80769E2,3.2975558E2,1.4170619E0,1.3038771E2,3.818736E0,3.8420606E0,3.4266552E1,2.2463078E2,1.5170071E0,2.9110758E1,1.2934335E0,1.612749E1,9.25533E0,6.2344124E1,3.933992E0],"tree_param":{"num_deleted":"0","num_feature":"30","num_nodes":"127","size_leaf_vector":"0"}},{"base_weights":[-1.3994215E-1,-4.1965827E-2,-2.014798E-1,-7.640148E-2,1.1783848E-1,-1.5959199E-1,-3.8060015E-1,-2.979278E-1,-5.3831887E-2,-1.5989974E-1,1.4551893E-1,-2.4286152E-1,-6.940737E-2,-5.22702E-1,-3.149479E-1,-3.1444883E-1,9.914796E-1,-1.7150184E-2,-1.9534872E-1,1.1710202E-1,-2.828196E-1,9.844451E-2,3.3687472E-1,-3.4315664E-1,-1.57536E-1,-2.0894924E-1,-5.8457428E-3,-1.0969772E-1,-5.429979E-1,-2.0722188E-1,-4.0245575E-1,-3.2182556E-1,1.4438432E0,-7.172706E-1,1.4812846E0,-2.2090596E-1,2.366248E-3,-2.0602532E-1,1.2838168E0,-2.883552E-1,5.2654856E-1,-3.2324448E-1,8.54519E-1,4.9619538E-1,6.39778E-2,1.0632002E-1,6.533368E-1,-1.9227637E-1,-3.9721486E-1,-2.2505718E-1,5.3728007E-2,-2.5030053E-1,2.1036439E-2,9.436737E-2,-1.17763385E-1,-3.3561775E-1,8.959497E-1,-5.5766904E-1,-7.12527E-2,6.1873543E-1,-2.2128817E-1,-4.2518204E-1,-1.4274879E-2,-2.9582378E-1,-8.40363E-1,-1.03259176E-1,2.3239064E0,1.9197685E0,-2.3754922E-1,-1.17506206E-1,-3.9872667E-1,1.0718253E-1,-3.256756E-2,-2.865437E-1,-6.6999316E-2,1.751667E0,5.026923E-2,5.058708E-1,-4.3798757E-1,6.994642E-1,-6.4367396E-1,-6.636962E-1,-1.696817E-1,-6.5222204E-1,1.663974E0,3.804469E-1,1.5142218E0,-1.2741429E-1,1.3061254E-1,-1.0599106E-1,4.431558E-1,8.1136346E-1,-5.907851E-3,-4.0702615E-2,-3.4550104E-1,-4.372826E-1,-2.2347736E-1,-3.7222007E-1,-1.6641366E-1,-9.1972016E-2,2.2577478E-1,-5.2901876E-1,-2.2943543E-1,1.6310449E-1,-2.7113637E-1,1.7300068E-1,-1.2549736E-1,-1.2860352E-1,1.0745053E0,-5.1918983E-1,4.5897564E-1,3.627603E-1,2.24557E0,-5.6281775E-1,5.996124E-1,-3.0511907E-1,1.7625998E0,1.0804119E0,-4.6581677E-1,-1.6322695E-1,-4.36442E-1,-4.5863882E-1,-1.003382E-1,1.8820146E-1,-8.682538E-1],"categories":[],"categories_nodes":[],"categories_segments":[],"categories_sizes":[],"default_left":[1,1,1,1,1,1,1,1,1,1,1,1,1,1,1,1,1,1,1,1,1,1,1,1,1,1,1,1,1,1,1,1,1,0,1,1,1,1,1,1,1,1,1,1,1,1,1,1,1,1,1,1,1,1,1,1,1,1,1,1,1,1,1,0,0,0,0,0,0,0,0,0,0,0,0,0,0,0,0,0,0,0,0,0,0,0,0,0,0,0,0,0,0,0,0,0,0,0,0,0,0,0,0,0,0,0,0,0,0,0,0,0,0,0,0,0,0,0,0,0,0,0,0,0,0],"id":11,"left_children":[1,3,5,7,9,11,13,15,17,19,21,23,25,27,29,31,33,35,37,39,41,43,45,47,49,51,53,55,57,59,61,63,65,-1,67,69,71,73,75,77,79,81,83,85,87,89,91,93,95,97,99,101,103,105,107,109,111,113,115,117,119,121,123,-1,-1,-1,-1,-1,-1,-1,-1,-1,-1,-1,-1,-1,-1,-1,-1,-1,-1,-1,-1,-1,-1,-1,-1,-1,-1,-1,-1,-1,-1,-1,-1,-1,-1,-1,-1,-1,-1,-1,-1,-1,-1,-1,-1,-1,-1,-1,-1,-1,-1,-1,-1,-1,-1,-1,-1,-1,-1,-1,-1,-1,-1],"loss_changes":[1.4717728E2,5.184136E1,1.124389E2,3.873087E1,1.2863859E1,9.125467E1,2.6340912E1,1.5571442E1,3.651287E1,5.203507E0,1.3653339E1,5.4020874E1,5.1762085E1,7.453476E0,1.8259476E1,9.648163E0,8.848694E0,2.2219687E1,2.3130703E1,8.017561E0,5.1254377E0,1.6704578E1,2.1787369E1,2.3607727E1,4.87415E1,1.7374596E1,4.4993664E1,1.0123765E1,5.871277E0,1.0293652E1,9.456253E0,9.26889E0,4.5156794E0,0E0,6.1513805E0,8.933519E0,1.86781E1,1.6082531E1,5.9800034E0,3.127513E0,5.2920465E0,5.2501574E0,5.8352675E0,1.0877989E1,1.435918E1,1.2526153E1,1.3138054E1,1.7820053E1,1.477771E1,2.2280579E1,2.0780685E1,8.881744E0,1.1635907E1,3.6614204E1,2.4631805E1,5.494157E0,5.0888715E0,5.2720947E0,1.2077355E1,7.964997E0,1.0675831E1,1.0966064E1,1.059982E1,0E0,0E0,0E0,0E0,0E0,0E0,0E0,0E0,0E0,0E0,0E0,0E0,0E0,0E0,0E0,0E0,0E0,0E0,0E0,0E0,0E0,0E0,0E0,0E0,0E0,0E0,0E0,0E0,0E0,0E0,0E0,0E0,0E0,0E0,0E0,0E0,0E0,0E0,0E0,0E0,0E0,0E0,0E0,0E0,0E0,0E0,0E0,0E0,0E0,0E0,0E0,0E0,0E0,0E0,0E0,0E0,0E0,0E0,0E0,0E0,0E0,0E0],"parents":[2147483647,0,0,1,1,2,2,3,3,4,4,5,5,6,6,7,7,8,8,9,9,10,10,11,11,12,12,13,13,14,14,15,15,16,16,17,17,18,18,19,19,20,20,21,21,22,22,23,23,24,24,25,25,26,26,27,27,28,28,29,29,30,30,31,31,32,32,34,34,35,35,36,36,37,37,38,38,39,39,40,40,41,41,42,42,43,43,44,44,45,45,46,46,47,47,48,48,49,49,50,50,51,51,52,52,53,53,54,54,55,55,56,56,57,57,58,58,59,59,60,60,61,61,62,62],"right_children":[2,4,6,8,10,12,14,16,18,20,22,24,26,28,30,32,34,36,38,40,42,44,46,48,50,52,54,56,58,60,62,64,66,-1,68,70,72,74,76,78,80,82,84,86,88,90,92,94,96,98,100,102,104,106,108,110,112,114,116,118,120,122,124,-1,-1,-1,-1,-1,-1,-1,-1,-1,-1,-1,-1,-1,-1,-1,-1,-1,-1,-1,-1,-1,-1,-1,-1,-1,-1,-1,-1,-1,-1,-1,-1,-1,-1,-1,-1,-1,-1,-1,-1,-1,-1,-1,-1,-1,-1,-1,-1,-1,-1,-1,-1,-1,-1,-1,-1,-1,-1,-1,-1,-1,-1],"split_conditions":[4.3207675E-1,-6.15E1,5E-1,1.5E0,-3.9915E3,-1.52805E4,-2.2585E3,-9.15E1,-3.655E2,-2.6125E3,-1.295E2,-1.0026333E3,-1.0795E3,-1.629E3,5.067831E-1,-6.25E1,-1.4175E3,-4.4995E3,8.2575756E-1,-1.1440505E3,7.1825397E-1,-1.8167E3,4.1319942E-1,3.3947587E-1,4.6536796E-2,3.2666665E-1,1.8518519E-2,-1.7725E3,-1.725E2,1.3910299E-2,-3.855E2,7.6518047E-1,2.1111111E-1,-2.1518119E-1,3.336562E-1,3.2410124E-1,2.6656467E-1,2.8219396E-2,-1.097E4,-2.219E3,-4.421E3,3.9565217E-1,4.0882656E-1,-2.217E3,5E-1,-3.658333E2,-1.375E2,-1.0505E3,2.3303168E-1,-4.2085E3,3.514706E-1,1.5E0,-7.285E2,-9.9225E3,-9.55E1,-5.8975E2,1.6228071E-1,7.0714283E-1,-1.10595E4,-2.35E1,-1.0157E4,3.9444447E-1,7.1579635E-1,-8.874714E-2,-2.5210893E-1,-3.0977754E-2,6.971719E-1,5.7593054E-1,-7.1264766E-2,-3.5251863E-2,-1.19618006E-1,3.215476E-2,-9.770269E-3,-8.5963115E-2,-2.0099796E-2,5.255001E-1,1.508077E-2,1.5176125E-1,-1.3139628E-1,2.0983927E-1,-1.931022E-1,-1.9910888E-1,-5.0904512E-2,-1.9566663E-1,4.9919224E-1,1.1413408E-1,4.5426655E-1,-3.8224287E-2,3.9183762E-2,-3.179732E-2,1.3294674E-1,2.4340905E-1,-1.7723553E-3,-1.2210785E-2,-1.0365032E-1,-1.3118479E-1,-6.7043215E-2,-1.11666024E-1,-4.99241E-2,-2.7591607E-2,6.773244E-2,-1.5870564E-1,-6.883063E-2,4.893135E-2,-8.134092E-2,5.1900204E-2,-3.7649207E-2,-3.858106E-2,3.223516E-1,-1.5575695E-1,1.376927E-1,1.088281E-1,6.73671E-1,-1.6884533E-1,1.7988373E-1,-9.1535725E-2,5.2878E-1,3.241236E-1,-1.3974504E-1,-4.8968088E-2,-1.309326E-1,-1.3759165E-1,-3.0101461E-2,5.646044E-2,-2.6047617E-1],"split_indices":[25,21,8,3,24,6,24,20,27,20,27,22,11,21,12,21,24,24,19,22,17,28,19,12,17,15,19,21,7,12,7,12,15,0,25,25,12,17,6,11,24,19,12,20,0,22,11,27,15,7,16,4,27,6,7,23,15,14,6,11,6,15,12,0,0,0,0,0,0,0,0,0,0,0,0,0,0,0,0,0,0,0,0,0,0,0,0,0,0,0,0,0,0,0,0,0,0,0,0,0,0,0,0,0,0,0,0,0,0,0,0,0,0,0,0,0,0,0,0,0,0,0,0,0,0],"split_type":[0,0,0,0,0,0,0,0,0,0,0,0,0,0,0,0,0,0,0,0,0,0,0,0,0,0,0,0,0,0,0,0,0,0,0,0,0,0,0,0,0,0,0,0,0,0,0,0,0,0,0,0,0,0,0,0,0,0,0,0,0,0,0,0,0,0,0,0,0,0,0,0,0,0,0,0,0,0,0,0,0,0,0,0,0,0,0,0,0,0,0,0,0,0,0,0,0,0,0,0,0,0,0,0,0,0,0,0,0,0,0,0,0,0,0,0,0,0,0,0,0,0,0,0,0],"sum_hessian":[2.4411023E4,9.417984E3,1.4993038E4,7.7487554E3,1.6692295E3,1.2152933E4,2.8401062E3,7.153373E2,7.033418E3,1.508513E2,1.5183782E3,6.3178354E3,5.8350967E3,8.9530035E2,1.9448058E3,7.0703424E2,8.30303E0,5.5864976E3,1.4469203E3,4.6380184E1,1.04471115E2,1.2198129E3,2.9856525E2,2.9027747E3,3.415061E3,1.8253889E3,4.0097075E3,4.2236115E1,8.530642E2,8.7321185E2,1.0715939E3,7.048939E2,2.140334E0,1.7463286E0,6.5567007E0,4.8741898E2,5.0990786E3,1.4374058E3,9.514457E0,2.3452213E1,2.292797E1,1.0157653E2,2.8945844E0,9.620433E1,1.1236086E3,1.7349992E2,1.2506534E2,7.6688965E2,2.135885E3,2.5878909E3,8.271701E2,1.5471279E3,2.78261E2,2.1155564E3,1.8941512E3,3.5032322E1,7.203791E0,8.271578E2,2.5906475E1,1.3902215E1,8.5930963E2,1.01223663E3,5.9357304E1,6.727307E2,3.2163204E1,1.0961069E0,1.044227E0,5.130883E0,1.425818E0,3.0925388E2,1.781651E2,1.2741171E3,3.8249617E3,9.095622E2,5.278436E2,6.5936465E0,2.9208105E0,3.3405137E0,2.01117E1,2.0326715E1,2.6012561E0,3.0542095E1,7.103443E1,1.0794721E0,1.8151124E0,8.761618E1,8.588151E0,2.8993332E2,8.3367523E2,1.06841774E2,6.665814E1,1.0069672E2,2.4368618E1,3.8615796E2,3.807317E2,1.7343811E3,4.0150397E2,7.3588324E2,1.8520076E3,4.481305E2,3.790396E2,1.0605673E2,1.4410712E3,1.8752121E2,9.07398E1,1.5584125E3,5.571438E2,1.8779689E3,1.6182413E1,2.8739365E1,6.292957E0,6.073244E0,1.130547E0,8.2400543E2,3.1523204E0,2.3715693E1,2.1907814E0,9.753937E0,4.1482778E0,6.780817E2,1.8122792E2,9.173443E2,9.489233E1,4.86113E1,1.0746003E1],"tree_param":{"num_deleted":"0","num_feature":"30","num_nodes":"125","size_leaf_vector":"0"}},{"base_weights":[-1.04064964E-1,-8.438765E-2,-3.3238843E-1,-1.0952449E-1,7.240328E-2,-2.0440616E-1,-4.2728168E-1,-6.4927265E-2,-1.9706494E-1,2.4128431E-1,1.9244228E-2,-3.7162694E-1,-1.4436051E-1,-3.649328E-1,-5.780793E-1,-8.8309474E-2,1.0754831E-1,-5.266916E-2,-2.3824194E-1,1.7973116E-1,6.6277754E-1,-7.032385E-2,1.1446711E-1,-4.0003645E-1,7.222374E-1,-2.3376344E-1,5.4205526E-2,-3.8214725E-1,1.07747145E-1,-6.20662E-1,-1.703133E-1,-1.2097596E-1,5.213799E-2,-1.9012994E-1,1.5906197E-1,-2.1147326E-1,-8.843755E-3,-3.0564553E-1,-1.6363254E-1,-4.08119E-1,2.1932328E-1,1.365903E0,5.178283E-1,-1.0104754E-1,3.86454E-1,-2.3260675E-1,1.4446585E-1,-4.9467182E-1,-1.5269145E-1,-4.5598093E-1,1.7567807E0,7.894866E-1,-2.5394243E-1,2.0782453E-1,-2.1861811E-1,-3.9251348E-1,3.4518352E-1,-3.0820954E-1,1.0812465E0,-6.5310025E-1,-1.3064049E-1,-4.9044806E-1,7.42297E-1,-2.3104733E-1,-8.922636E-2,3.2117483E-1,1.601116E-2,-2.50434E-1,6.3958627E-1,2.1274981E-1,-6.51893E-2,-2.4401043E-1,9.3085045E-1,6.632866E-2,-1.1854335E-1,-1.2482254E-1,-3.4893566E-1,-1.7556848E-1,4.1334385E-1,-4.851266E-1,9.9596006E-1,2.762252E-1,-2.6228902E-1,1.190152E-1,1.9878508E0,-5.099402E-1,6.0493666E-1,3.523789E-1,-1.2022585E-1,8.2561123E-1,1.030747E-1,3.4091142E-1,-4.2408335E-1,1.6437015E-1,-4.5230445E-1,-3.3331808E-1,-6.975033E-1,-7.166223E-1,7.270322E-2,-2.758692E-2,-6.2209344E-1,-4.8499167E-2,2.6514385E0,2.9204283E0,-1.4823197E-1,-1.5301229E-1,-4.7429147E-1,1.1220239E0,1.0724154E-1,-4.692564E-1,7.4632294E-2,-5.2986914E-1,-3.3148926E-1,2.078934E0,-1.7347185E-1,3.7931564E-1,-5.799306E-1,5.431612E-2,2.232127E0,5.599313E-1,-6.622638E-1,-7.1562594E-1,4.164368E-1,-8.050743E-1,-1.0888677E-1,-3.6765233E-1,1.604949E0],"categories":[],"categories_nodes":[],"categories_segments":[],"categories_sizes":[],"default_left":[1,1,1,1,1,1,1,1,1,1,1,1,1,1,1,1,1,1,1,1,1,1,1,1,1,1,1,1,1,1,1,1,1,1,1,1,1,1,1,1,1,1,1,1,1,1,1,1,1,1,1,1,1,1,1,1,1,1,1,1,1,1,1,0,0,0,0,0,0,0,0,0,0,0,0,0,0,0,0,0,0,0,0,0,0,0,0,0,0,0,0,0,0,0,0,0,0,0,0,0,0,0,0,0,0,0,0,0,0,0,0,0,0,0,0,0,0,0,0,0,0,0,0,0,0,0,0],"id":12,"left_children":[1,3,5,7,9,11,13,15,17,19,21,23,25,27,29,31,33,35,37,39,41,43,45,47,49,51,53,55,57,59,61,63,65,67,69,71,73,75,77,79,81,83,85,87,89,91,93,95,97,99,101,103,105,107,109,111,113,115,117,119,121,123,125,-1,-1,-1,-1,-1,-1,-1,-1,-1,-1,-1,-1,-1,-1,-1,-1,-1,-1,-1,-1,-1,-1,-1,-1,-1,-1,-1,-1,-1,-1,-1,-1,-1,-1,-1,-1,-1,-1,-1,-1,-1,-1,-1,-1,-1,-1,-1,-1,-1,-1,-1,-1,-1,-1,-1,-1,-1,-1,-1,-1,-1,-1,-1,-1],"loss_changes":[1.0581685E2,8.549681E1,2.2609879E1,7.297093E1,2.6906677E1,7.9553337E0,9.870575E0,4.9961964E1,3.7499084E1,1.8497944E1,1.9462898E1,6.818239E0,1.04604845E1,6.2360153E0,5.3108215E0,5.005223E1,2.2712717E1,9.7498865E0,2.4635834E1,1.4694393E1,8.574017E0,1.6543503E1,1.154904E1,4.733135E0,7.7186017E0,8.583696E0,7.7372165E0,5.6755753E0,1.1482012E1,4.3983154E0,9.384165E0,3.0908081E1,2.0007837E1,1.110128E1,1.5201921E1,1.1489382E1,9.07208E0,2.0134811E1,1.6132431E1,4.802334E0,1.6201935E1,1.1360371E1,7.212181E0,9.631541E0,9.164463E0,9.849301E0,1.2173901E1,4.615673E0,7.4618235E0,2.2815114E-1,5.34198E0,1.660874E1,8.799088E0,1.0723408E1,4.9301033E0,5.9007797E0,1.0123894E1,3.969027E0,9.882233E0,3.3087845E0,6.3028164E0,2.7285037E0,8.648011E0,0E0,0E0,0E0,0E0,0E0,0E0,0E0,0E0,0E0,0E0,0E0,0E0,0E0,0E0,0E0,0E0,0E0,0E0,0E0,0E0,0E0,0E0,0E0,0E0,0E0,0E0,0E0,0E0,0E0,0E0,0E0,0E0,0E0,0E0,0E0,0E0,0E0,0E0,0E0,0E0,0E0,0E0,0E0,0E0,0E0,0E0,0E0,0E0,0E0,0E0,0E0,0E0,0E0,0E0,0E0,0E0,0E0,0E0,0E0,0E0,0E0,0E0,0E0,0E0],"parents":[2147483647,0,0,1,1,2,2,3,3,4,4,5,5,6,6,7,7,8,8,9,9,10,10,11,11,12,12,13,13,14,14,15,15,16,16,17,17,18,18,19,19,20,20,21,21,22,22,23,23,24,24,25,25,26,26,27,27,28,28,29,29,30,30,31,31,32,32,33,33,34,34,35,35,36,36,37,37,38,38,39,39,40,40,41,41,42,42,43,43,44,44,